tree
version=v4
num_class=1
num_tree_per_iteration=1
label_index=0
max_feature_idx=30
objective=binary sigmoid:1
feature_names=kol1_idx kol2_idx kol1_tier_rank kol2_tier_rank combo_2x_rate_smoothed combo_log_n kol_count_at_entry kol1_buy_usd kol2_buy_usd combined_notional delta_blocks entry_mcap bonding_curve_pct age_blocks dev_sell_usd dev_sell_pct holder_count deployer_grads deployer_grad_rate hour_utc dow bnb_price btc_4h_chg bnb_4h_chg k1k2_ratio dev_sell_rate deployer_reputation_score name_len name_cjk_ratio kol1_buy_pct_mcap deployer_launches
feature_infos=[0:10] [0:10] [0:10] [0:10] [0.17359855771064758:0.43128389120101929] [0.69314718246459961:4.3694477081298828] [1:4] [0:643] [0:3475] [0:3542] [0:1347202] [0:175251] [0:0.5900999903678894] [1:1614908] [0:21384] [0:0.50373834371566772] [0:1399] [0:9] [0:1] [0:23] [0:6] [607.80999755859375:685.21002197265625] [-2.6812033653259277:2.6180408000946045] [-2.7670814990997314:2.2519781589508057] [0:15] [0:1820.5] [-78.868400573730469:95] [1:20] [0:1] [0:0.010006658732891083] [0:155]
tree_sizes=2599 2694 2506 3128 3336 2837 3339 3046 2817 2627 3116 3251 3257 2953 3368 2838 2944 2966 3241 2755 2723 2949 3062 2954 2105 2431 3384 2434 2768 3385 2462 2848 2637 3138 3256 2309 2117 2635 2772 2957 2542 2537 2431 2025 3570 2239 2552 3061 2737 2554 2021 3260 1497 1922 3752 3172 1922 3476 3283 1915 2135 3372 2021 2576 2241 1604 2561 2653 2559 2561 3371 1729 2653 2871 2577 2544 1613 1827 3215 1824 2475 3412 3597 3291 2576 2251 2690 2609 2169 3393 1933 2050 2169 2992 2775 3493 2570 3629 2254 2994

Tree=0
num_leaves=24
num_cat=0
split_feature=7 11 24 9 11 5 11 9 5 1 10 24 7 13 22 9 27 5 22 14 11 20 13
split_gain=118.682 79.6852 53.1439 35.5501 20.2035 18.3595 24.6341 19.4928 16.7723 15.2529 15.0406 14.3552 13.8213 19.4949 14.0705 12.4911 11.8518 9.35821 11.261 16.7516 6.39779 2.16259 0.740202
threshold=1.0000000180025095e-35 4891.5000000000009 0.83728626370430004 98.500000000000014 17507.000000000004 2.7058230638504033 9012.5000000000018 296.50000000000006 2.3937458992004399 3.5000000000000004 36.500000000000007 0.5855562984943391 51.500000000000007 6.5000000000000009 0.31973393261432653 69.500000000000014 12.500000000000002 2.6020033359527592 -0.50564409792423237 175.50000000000003 6934.0000000000009 4.5000000000000009 21.500000000000004
decision_type=2 2 2 2 2 2 2 2 2 2 2 2 2 2 2 2 2 2 2 2 2 2 2
left_child=21 15 3 8 11 6 20 -8 10 -6 -3 -5 14 -14 -7 17 -10 -2 -19 -20 -4 -1 -17
right_child=1 2 5 4 9 12 7 -9 16 -11 -12 -13 13 -15 -16 22 -18 18 19 -21 -22 -23 -24
leaf_value=-0.97291571352512052 -0.51815287356376971 -0.87695937990998052 -0.68715564529304474 -0.53058880678426945 -0.80936749756114545 -0.74554380411617283 -0.91368071022555353 -0.62245525340728081 -0.77957618708059517 -0.58479383142149022 -0.59006842090368661 -0.68073407080228232 -0.7681584986060459 -0.93865462462538107 -0.97291571352512052 -0.50011269513507606 -0.97291571352512052 -0.83385600034784024 -0.55122653408507594 -0.7681584986060459 -0.52197641812816165 -0.86763568761479792 -0.54336786251732261
leaf_weight=18.82390616834164 5.5431822091341045 2.3882390409708005 4.8117288798093814 19.687550157308582 8.4073064625263196 19.149975880980495 7.7375419735908491 3.2695080935955048 18.96490935981274 4.7236019968986502 7.781605526804924 9.4119531959295255 10.072904929518701 20.066495507955551 3.1725684553384772 9.2092613875865954 3.8070821464061728 3.2959461361169859 9.7820862382650322 5.5960582941770562 4.573786273598671 2.1767344772815695 6.9355872720479956
leaf_count=89 12 10 15 44 32 66 34 9 69 12 20 29 36 91 15 19 18 13 23 20 10 9 16
internal_value=-0.736514 -0.711378 -0.745339 -0.686352 -0.625615 -0.806202 -0.725685 -0.827176 -0.764215 -0.728581 -0.657441 -0.579152 -0.8375 -0.881673 -0.777859 -0.586828 -0.811899 -0.63225 -0.666118 -0.630167 -0.60666 -0.962003 -0.518694
internal_weight=209.39 188.389 148.027 75.1722 42.2304 72.8545 20.3926 11.0071 32.9418 13.1309 10.1698 29.0995 52.4619 30.1394 22.3225 40.3621 22.772 24.2173 18.6741 15.3781 9.38552 21.0006 16.1448
internal_count=711 613 510 234 117 276 68 43 117 44 30 73 208 127 81 103 87 68 56 43 25 98 35
is_linear=0
shrinkage=1


Tree=1
num_leaves=25
num_cat=0
split_feature=7 11 8 11 5 27 24 8 10 29 9 10 5 13 7 9 11 15 15 20 9 9 20 1
split_gain=93.7871 57.1964 63.5565 19.4954 23.3735 16.7754 11.5907 12.5728 20.7671 10.4078 9.22539 14.2965 9.70104 7.64716 18.3678 8.92232 5.98615 5.93885 4.48168 4.07906 2.30231 2.53149 2.01737 7.10543e-15
threshold=1.0000000180025095e-35 5863.5000000000009 62.500000000000007 8803.0000000000018 2.6020033359527592 9.5000000000000018 1.3353413939476015 105.00000000000001 58.500000000000007 0.0021497093839570884 95.500000000000014 49223.000000000007 2.2499048709869389 16.500000000000004 37.500000000000007 69.500000000000014 27485.500000000004 0.08504152670502664 1.0000000180025095e-35 2.5000000000000004 50.500000000000007 64.500000000000014 4.5000000000000009 1.5000000000000002
decision_type=2 2 2 2 2 2 2 2 2 2 2 2 2 2 2 2 2 2 2 2 2 2 2 2
left_child=22 9 3 4 17 -6 7 8 -4 18 11 -5 -12 20 15 -15 -9 -3 -2 -8 -11 -22 23 -1
right_child=1 2 6 10 5 -7 19 16 -10 13 12 -13 -14 14 -16 -17 -18 -19 -20 -21 21 -23 -24 -25
leaf_value=-0.13779793151238556 0.14650164131740859 0.22657082397407755 0.0001191774108635103 -0.019593223864217565 -0.063764355232768397 0.085961128382992899 0.10376082028756298 0.2571687722726328 0.19188510307011242 0.2873619158945469 0.06386320586586057 0.23660603127167282 -0.1259223301785648 0.14303052629549282 -0.071693293924236901 0.26431316299681912 0.14915863568693918 0.065418333480521465 -0.011919131901613235 -0.066786141274846458 0.15695848013102534 0.2467049980653791 -0.035084628487770046 -0.13779793151238573
leaf_weight=6.170840844511992 3.7820067852735511 8.4178021997213346 9.1914329528808612 23.772353276610378 14.145497187972071 15.887975320219992 2.7525875717401496 15.491018623113634 14.645110398530958 7.7871495187282589 3.3244818150997189 2.397769257426261 14.187058106064795 14.719721570611005 2.9280299842357627 10.317194625735281 7.6726577579975119 3.1397550106048575 3.383127748966217 2.859036773443222 4.439441740512847 10.762363910675047 2.143553525209426 11.545444160699843
leaf_count=31 10 19 34 95 60 54 9 31 37 15 12 6 67 41 12 20 22 10 13 12 12 22 9 58
internal_value=0.0803626 0.101344 0.0662727 0.0129442 0.0619459 0.0154418 0.152707 0.168925 0.11794 0.184549 -0.0337122 0.00388037 -0.0898925 0.200418 0.165293 0.193009 0.221392 0.182792 0.0717009 0.0168698 0.243146 0.220496 -0.126712 -0.137798
internal_weight=215.863 196.004 137.885 85.2727 41.591 30.0335 52.6118 47.0002 23.8365 58.119 43.6817 26.1701 17.5115 50.9539 27.9649 25.0369 23.1637 11.5576 7.16513 5.61162 22.989 15.2018 19.8598 17.7163
internal_count=711 613 468 323 143 114 145 124 71 145 180 101 79 122 73 61 53 29 23 21 49 34 98 89
is_linear=0
shrinkage=0.1


Tree=2
num_leaves=23
num_cat=0
split_feature=11 11 8 11 5 1 16 23 10 9 18 25 7 24 7 5 23 26 28 23 13 20
split_gain=76.3663 45.3389 41.99 28.9989 23.1025 10.928 10.5007 18.2476 13.5422 18.5063 10.2336 11.7759 8.18377 6.9178 3.83872 4.12988 3.10586 2.95852 2.7728 0.92943 0.331429 0.00322158
threshold=1.0000000180025095e-35 4240.5000000000009 62.500000000000007 8803.0000000000018 2.6020033359527592 1.0000000180025095e-35 63.000000000000007 -0.18524470180273053 64.500000000000014 145.50000000000003 0.21111100167036059 46.366666793823249 71.500000000000014 0.54145300388336193 19.500000000000004 2.6020033359527592 -1.0000000180025095e-35 11.435699939727785 0.48076923191547399 -1.0000000180025095e-35 20.500000000000004 3.5000000000000004
decision_type=2 2 2 2 2 2 2 2 2 2 2 2 2 2 2 2 2 2 2 2 2 2
left_child=21 14 3 4 18 -6 8 -8 9 -4 11 -5 -10 -9 15 -2 -12 -17 -3 20 -16 -1
right_child=1 2 6 10 5 -7 7 13 12 -11 16 -13 -14 -15 19 17 -18 -19 -20 -21 -22 -23
leaf_value=-0.13293238708579677 0.23494402224911096 0.12468469605991035 -0.019302869177281773 -0.085087177525725172 -0.057410574066311976 0.059909721486699902 0.20684608373831931 0.053073638561716666 0.22417960568756837 0.18434768245068678 0.1609361688518651 0.041647590712441146 0.096120286876770544 -0.14773124794317374 0.22286551538872451 0.079194496825895133 0.015309597422764812 0.18400342121100799 0.20188132858109326 0.18765489348989334 0.25480188478333177 -0.13692318123659883
leaf_weight=14.536377668380739 4.5611457377672187 8.7404249161481875 8.6021726578474063 28.202543586492538 10.19193124771118 35.926195293664932 4.3993488252162933 3.2222876846790296 23.181662783026699 9.2716774940490705 2.9978288263082504 9.9071295857429487 6.3593291193246833 3.6691413670778275 8.0738703608512896 6.596280559897421 2.863403007388114 4.5517299771308899 9.9493129104375821 5.7290157675743094 5.4383015036582938 2.3497686088085166
leaf_count=78 9 23 32 128 42 121 10 10 44 22 9 37 19 17 15 19 11 10 21 12 10 12
internal_value=0.0708216 0.0878641 0.0662453 0.0294617 0.071991 0.0339824 0.134404 0.0477345 0.155042 0.0863365 -0.0332213 -0.0521407 0.196612 -0.0538391 0.191463 0.154785 0.0897928 0.121988 0.16578 0.221408 0.235719 -0.133488
internal_weight=219.321 202.435 167.484 108.779 64.8079 46.1181 58.7056 11.2908 47.4148 17.8739 43.9709 38.1097 29.541 6.89143 34.9503 15.7092 5.86123 11.148 18.6897 19.2412 13.5122 16.8861
internal_count=711 621 546 392 207 163 154 37 117 54 185 165 63 27 75 38 20 29 44 37 25 90
is_linear=0
shrinkage=0.1


Tree=3
num_leaves=29
num_cat=0
split_feature=11 11 8 4 11 11 10 4 10 8 9 4 14 7 8 9 22 11 25 22 11 5 8 23 30 21 27 1
split_gain=62.8249 36.2555 40.2522 15.6035 18.4822 15.4979 12.3061 12.1057 13.1763 12.1816 11.0542 9.11431 9.05139 7.67901 11.6013 6.05606 5.03296 4.04185 2.62328 4.53587 0.391871 0.00267157 0.00172127 0.00134209 7.78481e-05 1.62938e-07 7.70488e-08 1.77636e-15
threshold=1.0000000180025095e-35 5863.5000000000009 59.500000000000007 0.31904487311840063 45579.500000000007 26827.000000000004 8.5000000000000018 0.33672393858432775 49223.000000000007 36.500000000000007 145.50000000000003 0.29237665235996252 411.00000000000006 19.500000000000004 54.500000000000007 23.500000000000004 -0.50564409792423237 4745.0000000000009 9.3938622474670428 -0.28370170295238489 4836.5000000000009 2.7058230638504033 29.500000000000004 0.090800713747739806 56.500000000000007 643.59500122070324 8.5000000000000018 2.5000000000000004
decision_type=2 2 2 2 2 2 2 2 2 2 2 2 2 2 2 2 2 2 2 2 2 2 2 2 2 2 2 2
left_child=23 11 5 4 10 7 -5 8 -3 -9 -4 12 13 14 -2 -13 -8 -15 19 -17 -20 -7 -23 24 25 26 -1 -27
right_child=1 2 3 6 -6 21 16 9 -10 -11 -12 15 -14 17 -16 18 -18 -19 20 -21 -22 22 -24 -25 -26 27 -28 -29
leaf_value=-0.12879488181131132 -0.062165707827148767 -0.015691764027903312 0.018339317617769076 -0.14544871128820136 -0.14710445394800162 -0.13962827935977615 0.1012313657954696 0.16569442414966207 0.18987352573354815 -0.0046893153057121911 0.15452411993241505 0.063701101653464223 -0.039511174688556826 0.18396173504151248 0.18888472471472492 0.082878544552266162 0.19469556374150832 0.077675514837427836 0.21419239692912845 0.20152584445347366 0.25085336518350432 -0.13779816300271261 -0.1337612444578534 -0.13150700348622263 -0.12953884812076574 -0.12883310760450112 -0.12882268796151808 -0.12883310760450106
leaf_weight=2.083043813705443 4.5822316259145799 54.649157658219337 11.361578762531286 1.2727876752614964 3.8200743645429602 2.8075002878904334 7.6321332156658199 9.677639305591585 3.3068092316389075 7.4082314372062674 12.537565425038336 4.0036081075668362 3.9195206612348548 14.246723413467409 3.0766056329011917 4.4289328008890214 23.506107598543167 4.7777593284845343 6.2602983117103559 11.825292393565176 5.4573233127593994 1.986357733607292 2.2555525451898575 2.3546349108219138 1.7560324072837818 5.7325835376977921 1.9104781746864317 1.9108611792325971
leaf_count=12 17 218 38 6 18 14 21 24 8 27 29 12 15 28 6 12 49 14 11 22 10 10 12 13 10 33 11 11
internal_value=0.0631687 0.0779686 0.0500592 0.11222 0.0571362 0.00452785 0.159329 0.017845 -0.00396277 0.0918181 0.0897823 0.141398 0.102388 0.123232 0.0386829 0.178734 0.171787 0.157269 0.195198 0.169197 0.231267 -0.137235 -0.135652 -0.129305 -0.128918 -0.128825 -0.128808 -0.128833
internal_weight=220.547 204.8 142.221 60.1302 27.7192 82.0912 32.411 75.0418 57.956 17.0859 23.8991 62.5783 30.6028 26.6833 7.65884 31.9755 31.1382 19.0245 27.9718 16.2542 11.7176 7.04941 4.24191 15.7476 13.393 11.637 3.99352 7.64344
internal_count=711 621 474 161 85 313 76 277 226 51 67 147 80 65 23 67 70 42 55 34 21 36 22 90 77 67 23 44
is_linear=0
shrinkage=0.1


Tree=4
num_leaves=31
num_cat=0
split_feature=11 24 29 4 11 8 28 27 13 22 4 11 8 4 5 8 8 9 7 18 28 22 11 9 28 20 23 17 17 3
split_gain=52.2309 30.4613 20.7245 16.8317 18.3092 12.5189 14.0737 10.8076 13.2773 12.284 9.89742 7.75047 7.45349 20.562 6.91343 7.64099 18.1207 5.91499 5.91411 5.77788 4.04596 3.99214 3.92526 2.95309 2.81407 0.0015394 3.37818e-07 1.44423e-08 1.39573e-09 7.06102e-12
threshold=1.0000000180025095e-35 0.75683665275573742 0.0025026116054505114 0.33518731594085699 5538.0000000000009 90.500000000000014 0.76388889551162731 9.5000000000000018 385.50000000000006 -0.23349589109420774 0.3012405931949616 4795.5000000000009 18.500000000000004 0.26642353832721716 2.5249279737472539 36.500000000000007 69.500000000000014 68.500000000000014 57.500000000000007 0.12701600044965747 0.91987180709838878 0.93140655755996715 6343.0000000000009 55.500000000000007 0.15757576376199725 3.5000000000000004 1.0000000180025095e-35 2.5000000000000004 1.5000000000000002 2.5000000000000004
decision_type=2 2 2 2 2 2 2 2 2 2 2 2 2 2 2 2 2 2 2 2 2 2 2 2 2 2 2 2 2 2
left_child=25 2 5 4 20 6 11 8 -6 -9 -8 -2 13 -4 24 17 -17 -16 -7 -15 23 22 -14 -3 -5 26 27 28 29 -1
right_child=1 3 12 14 7 18 10 9 -10 -11 -12 -13 21 19 15 16 -18 -19 -20 -21 -22 -23 -24 -25 -26 -27 -28 -29 -30 -31
leaf_value=-0.12534786353722974 0.03847355290576638 0.11337650465735094 -0.1425799195843771 0.097577289512332299 -0.10179187380110676 0.18028506839997938 -0.036569113497215373 0.11403303253997754 0.060952535943510966 -0.030450712777651802 0.16679794718957464 -0.1460984293980524 0.16304534750538791 0.092074530994792472 -0.0026226354077331353 -0.14276824265147969 0.15807376663601222 0.17024662369488514 0.020785667520744597 0.24242745164297286 0.1801458251028214 0.21459432725039285 0.10963757433358279 -0.017347259171862899 0.20400549785774494 -0.12829449460286832 -0.12529868508325814 -0.12533705663389608 -0.12534479630252923 -0.12534809220543616
leaf_weight=5.6464496701955778 3.2857819497585332 4.5202691555023176 3.5042056441307095 4.305026903748514 22.665500670671467 6.7319022417068464 4.2839708775281906 9.417218431830408 6.4365712702274314 15.68577955663204 5.421823263168335 7.3962371200323105 29.751390546560287 10.591711968183516 2.8528253287076968 4.7165765613317472 3.4789485484361649 6.4644639641046524 3.5509855896234512 3.3688509166240683 4.9946940392255783 7.8381119370460501 25.604413136839867 2.7976300418376923 5.8745702654123306 2.0496672391891471 1.7725447267293919 1.6128614544868458 1.7744705229997633 1.7746081501245496
leaf_count=35 10 11 17 12 106 13 18 28 22 64 13 35 60 31 10 23 8 14 11 7 10 14 64 9 11 12 11 10 11 11
internal_value=0.056805 0.0697998 0.105213 0.027951 0.000678418 0.0352452 -0.0101274 -0.0243263 -0.0657973 0.0237514 0.0770352 -0.0893242 0.131819 0.0739947 0.0934603 0.0553666 -0.0150627 0.117316 0.125205 0.128356 0.110759 0.1478 0.138342 0.0634009 0.158996 -0.125753 -0.125339 -0.125346 -0.125347 -0.125348
internal_weight=220.17 205.539 111.329 94.2101 66.5177 30.6707 20.3878 54.2051 29.1021 25.103 9.70579 10.682 80.6587 17.4648 27.6924 17.5128 8.19553 9.31729 10.2829 13.9606 12.3126 63.1939 55.3558 7.3179 10.1796 14.6306 12.5809 10.8084 9.19553 7.42106
internal_count=711 621 293 328 250 100 76 220 128 92 31 45 193 55 78 55 31 24 24 38 30 138 124 20 23 90 78 67 57 46
is_linear=0
shrinkage=0.1


Tree=5
num_leaves=26
num_cat=0
split_feature=11 11 8 7 13 24 29 4 11 14 10 5 13 9 4 7 22 16 16 5 20 23 17 10 10
split_gain=43.808 24.6373 22.8451 19.0352 11.3484 10.5739 9.94752 9.38605 14.9307 8.52322 7.89678 7.46234 5.84179 2.85107 4.33202 6.83626 1.79593 0.717405 0.0290178 0.0164895 0.0010588 2.31117e-07 9.87794e-09 1.15416e-09 9.84279e-12
threshold=1.0000000180025095e-35 4240.5000000000009 62.500000000000007 51.500000000000007 39.500000000000007 1.0392307639122011 0.0072252566460520038 0.32458584010601049 45579.500000000007 856.00000000000011 18.500000000000004 3.4652473926544194 20.500000000000004 72.500000000000014 0.29237665235996252 19.500000000000004 -0.50564409792423237 5.5000000000000009 5.5000000000000009 2.6020033359527592 3.5000000000000004 1.0000000180025095e-35 2.5000000000000004 5.5000000000000009 279.00000000000006
decision_type=2 2 2 2 2 2 2 2 2 2 2 2 2 2 2 2 2 2 2 2 2 2 2 2 2
left_child=20 13 3 6 5 -5 11 8 9 -4 -9 -3 -8 14 15 -2 -12 -16 -15 -6 21 22 23 -1 -25
right_child=1 2 7 4 19 -7 12 10 -10 -11 16 -13 -14 18 17 -17 -18 -19 -20 -21 -22 -23 -24 24 -26
leaf_value=-0.12235862856292852 -0.023034877444684056 0.062539933923276531 0.11907389588475462 0.077850538055503765 -0.14267029847861659 -0.051041765527054944 0.18955298515563035 -0.054005416643805232 -0.14092179625467727 -0.0051248029178711588 0.10500186529125942 -0.0094514296223810971 0.043195353647450474 0.1824758269211367 0.17783336024144036 0.14076605066469203 0.16354687224197342 0.13078335695149299 0.17274993411026021 -0.13251297428827355 -0.12489866100664618 -0.12231934702140801 -0.12235233485084163 -0.12236162069450936 -0.12236189225031656
leaf_weight=1.4933993369340877 4.5058469921350497 35.644046068191528 18.476639509201057 9.6971682906150836 2.061822444200514 18.521024808287621 7.2569718658924085 2.0502011924982098 3.3933644741773596 7.8828601092100135 6.9368254095315995 24.156325131654739 4.3691071569919586 5.6583789587020856 7.0425076931714994 5.8636268377304077 21.41734221577644 6.0032636225223541 6.7000082731246948 7.1087663769721985 1.9024203270673741 1.6409048587083805 1.4931323826313008 5.2273421138525009 1.7922452986240385
leaf_count=10 15 111 44 31 10 80 15 8 17 26 17 92 14 10 13 12 42 13 12 39 12 11 10 35 12
internal_value=0.0514297 0.0629538 0.0469927 0.0196534 -0.0381553 -0.00674799 0.0499139 0.0964453 0.0565152 0.081932 0.13552 0.0334591 0.134551 0.138344 0.117835 0.0695896 0.149224 0.156182 0.177203 -0.134797 -0.122711 -0.122354 -0.12236 -0.122361 -0.122362
internal_weight=218.296 204.746 168.972 108.815 37.3888 28.2182 71.4265 60.1572 29.7529 26.3595 30.4044 59.8004 11.6261 35.7736 23.4152 10.3695 28.3542 13.0458 12.3584 9.17059 13.5494 11.647 10.0061 8.51299 7.01959
internal_count=711 621 546 392 160 111 232 154 87 70 67 203 29 75 53 27 59 26 22 49 90 78 67 57 47
is_linear=0
shrinkage=0.1


Tree=6
num_leaves=31
num_cat=0
split_feature=7 4 7 8 29 8 0 7 10 7 29 19 19 16 8 9 10 29 7 29 21 20 21 4 30 1 0 19 21 30
split_gain=36.714 18.3477 17.5948 15.0076 13.4168 9.88619 9.65844 8.37511 7.5281 6.26225 6.90591 5.60713 5.05773 6.09987 4.16936 8.43956 10.4158 5.18935 3.791 2.70654 2.64512 1.50859 1.35868 1.05335 0.435682 0.00196216 2.77594e-05 3.54171e-07 5.06245e-07 4.377e-09
threshold=1.0000000180025095e-35 0.33518731594085699 48.500000000000007 66.500000000000014 0.0025026116054505114 134.00000000000003 2.5000000000000004 8.5000000000000018 7.5000000000000009 82.500000000000014 0.0069236319977790126 8.5000000000000018 12.500000000000002 51.000000000000007 69.500000000000014 87.500000000000014 112.00000000000001 0.0057981100399047145 35.500000000000007 0.0072252566460520038 651.52499389648449 4.5000000000000009 637.66000366210949 0.37198479473590856 4.5000000000000009 4.5000000000000009 3.5000000000000004 11.500000000000002 648.85000610351574 31.500000000000004
decision_type=2 2 2 2 2 2 2 2 2 2 2 2 2 2 2 2 2 2 2 2 2 2 2 2 2 2 2 2 2 2
left_child=21 2 4 6 5 7 19 -2 -3 20 -11 -8 13 -6 15 17 -17 -10 -14 -4 -5 25 23 -16 -24 26 27 28 -1 -29
right_child=1 8 3 9 12 -7 11 -9 14 10 -12 -13 18 -15 22 16 -18 -19 -20 -21 -22 -23 24 -25 -26 -27 -28 29 -30 -31
leaf_value=-0.11969556531196544 0.039326469279792685 -0.069035408738962897 -0.13278808797880864 0.049199586721517856 0.078213870083315831 0.1516950120771802 0.062785818181455011 -0.113941955888126 0.07673372975575346 -0.13807368139281348 0.069468883456009198 -0.053786482781314329 0.15953334380057488 -0.072554813396390291 0.087451104866981419 -0.10216986768856383 0.096684485166487921 0.16265285620204153 0.063108798129997395 -0.053076588406934168 0.13579142060734217 -0.025292861328842255 0.14959699310385324 0.15314135453610234 0.18910623320362197 -0.12303904319987291 -0.12022970690077395 -0.11978459969023043 -0.11977768011392256 -0.11977809343543178
leaf_weight=1.3746967315673813 6.3862193971872356 2.4500839114189139 10.13685964047909 6.3397952914237994 44.754301771521568 3.0570244044065467 8.6693871170282382 8.0709523111581785 14.138051629066469 2.8389184772968283 3.6835272163152695 7.8736779391765586 13.307429671287538 2.8546447157859793 5.15063124895096 4.4376372396945936 6.4809284806251526 13.981395259499548 5.8785142153501502 7.3468891084194174 7.9531265199184418 1.9237527549266804 5.5079924166202527 4.6400541365146637 5.6583614945411682 2.3644700944423667 1.5354520380496968 4.1366283446550369 1.654262989759445 1.3785724788904188
leaf_count=10 20 10 56 17 122 6 30 38 38 15 11 36 27 12 12 20 18 28 18 32 17 9 11 9 10 16 11 30 12 10
internal_value=0.0467378 0.0577451 0.0375356 -0.00655322 0.0662149 -0.0116898 -0.047468 -0.0462381 0.102779 0.0603301 -0.0208648 0.00730319 0.0866422 0.0691737 0.109796 0.0904808 0.015864 0.119454 0.129989 -0.0992923 0.0973826 -0.107706 0.145776 0.118583 0.169618 -0.120446 -0.119838 -0.119768 -0.11974 -0.119783
internal_weight=215.964 201.596 139.151 54.8422 84.3091 17.5142 34.0268 14.4572 62.4451 20.8154 6.52245 16.5431 66.7949 47.6089 59.9951 39.038 10.9186 28.1194 19.1859 17.4837 14.2929 14.3678 20.957 9.79069 11.1664 12.4441 10.0796 8.54416 3.02896 5.5152
internal_count=711 613 457 214 243 64 154 58 156 60 26 66 179 134 146 104 38 66 45 88 34 98 42 21 21 89 73 62 22 40
is_linear=0
shrinkage=0.1


Tree=7
num_leaves=28
num_cat=0
split_feature=11 24 29 27 24 14 30 13 23 10 0 3 8 30 8 11 24 22 0 11 21 11 20 3 22 30 10
split_gain=31.601 18.7298 13.4677 12.5764 7.89256 9.77962 8.30819 7.64365 11.9164 6.39909 6.10263 5.96547 5.4587 8.28676 4.27404 7.85668 2.87627 1.74411 0.19519 0.0512637 0.0369611 0.01671 0.00145796 3.24456e-07 5.18378e-08 8.74032e-09 4.70245e-09
threshold=1.0000000180025095e-35 0.75683665275573742 0.0025026116054505114 3.5000000000000004 0.35557506978511816 1688.0000000000002 30.500000000000004 6.5000000000000009 0.22194492071866992 2.5000000000000004 2.5000000000000004 2.5000000000000004 36.500000000000007 23.500000000000004 107.50000000000001 6240.5000000000009 1.5075757503509524 0.19214341044425967 1.5000000000000002 8118.0000000000009 645.20001220703136 9178.0000000000018 3.5000000000000004 4.5000000000000009 1.0000000180025095e-35 48.500000000000007 165.00000000000003
decision_type=2 2 2 2 2 2 2 2 2 2 2 2 2 2 2 2 2 2 2 2 2 2 2 2 2 2 2
left_child=22 2 4 17 6 20 10 12 11 -4 -2 -9 16 -14 15 -11 -5 21 -16 -10 -6 -3 23 24 25 26 -1
right_child=1 3 9 7 5 -7 -8 8 19 14 -12 -13 13 -15 18 -17 -18 -19 -20 -21 -22 -23 -24 -25 -26 -27 -28
leaf_value=-0.11755207090316318 0.021688882552108789 -0.14577340636569644 -0.050633039972769869 0.17798987116068066 -0.13740197718617295 0.089845174559541774 -0.10059727150200946 0.00072389240508663748 -0.14942665164949426 0.12961824878101671 0.1344564181870451 0.065925521931628123 -0.095414100450323169 0.11341819768860049 0.14301491764749152 0.059012978333336165 0.081340306306883742 -0.026643857657364201 0.16795240363293051 -0.12874732726065732 -0.15506250773376998 -0.13419236881358079 -0.1207244691492146 -0.11749141910690974 -0.11752796251843066 -0.11754147513435485 -0.11754521249403092
leaf_weight=4.6996930688619596 9.7629469335079282 2.0478861033916465 2.6707479655742636 5.507370591163637 1.9586285948753346 2.6509304493665695 3.0481501370668402 37.871831282973289 2.1457214057445517 33.097198158502579 9.4384581297636014 22.291839778423309 3.540863797068595 4.100788339972496 5.0870028585195533 30.087394014000893 6.983705461025238 1.8901189863681791 8.1952523589134199 2.7163471430540085 3.0004555583000183 3.1813867837190628 1.6802771240472782 1.2671050578355778 1.3958575278520582 1.2696493715047834 1.2698386460542677
leaf_count=37 32 10 9 10 10 8 13 143 10 70 23 66 15 12 10 89 20 8 15 16 14 18 12 10 11 10 10
internal_value=0.0426197 0.0518626 0.0799307 0.018709 0.0227052 -0.0652041 0.0527729 0.0293833 0.0127129 0.101523 0.0771198 0.0248824 0.0832261 0.0166529 0.106837 0.0959973 0.123954 -0.108971 0.158402 -0.137873 -0.148087 -0.138728 -0.118001 -0.117539 -0.117546 -0.117549 -0.117551
internal_weight=212.857 201.275 108.997 92.2779 29.8596 7.61001 22.2496 85.1585 65.0257 79.1376 19.2014 60.1637 20.1327 7.64165 76.4668 63.1846 12.4911 7.11939 13.2823 4.86207 4.95908 5.22927 11.5824 9.90214 8.63504 7.23918 5.96953
internal_count=711 621 293 328 100 32 68 292 235 193 55 209 57 27 184 159 30 36 25 26 24 28 90 78 68 57 47
is_linear=0
shrinkage=0.1


Tree=8
num_leaves=26
num_cat=0
split_feature=11 11 8 11 10 21 10 14 8 18 10 11 21 9 9 7 28 24 11 20 1 22 16 28 27
split_gain=26.9117 16.6944 15.6078 10.5499 13.811 12.0037 10.6801 9.9662 7.45782 6.47691 6.05774 4.97542 6.90065 2.8827 3.19292 1.9709 2.25233 1.7408 0.11415 0.00102814 2.27539e-07 3.63521e-08 3.15704e-09 3.55223e-09 8.29243e-10
threshold=1.0000000180025095e-35 4240.5000000000009 87.500000000000014 8803.0000000000018 142.00000000000003 629.76000976562511 7502.5000000000009 773.00000000000011 48.500000000000007 0.085563998669385924 3.5000000000000004 44089.000000000007 644.15499877929699 69.500000000000014 55.500000000000007 19.500000000000004 0.89181286096572887 0.35557506978511816 3884.5000000000005 3.5000000000000004 4.5000000000000009 1.0000000180025095e-35 5.5000000000000009 0.94243422150611889 10.500000000000002
decision_type=2 2 2 2 2 2 2 2 2 2 2 2 2 2 2 2 2 2 2 2 2 2 2 2 2
left_child=19 13 3 4 7 9 -7 -3 -6 -5 -4 17 -13 14 15 16 -2 -12 -15 20 21 22 23 -1 -24
right_child=1 2 10 5 8 6 -8 -9 -10 -11 11 12 -14 18 -16 -17 -18 -19 -20 -21 -22 -23 24 -25 -26
leaf_value=-0.11559748352199689 0.027018268890574577 0.024805983035554743 -0.1661520622667933 0.015745927994837677 0.061905267816539281 -0.060028408949212998 0.069244474727463742 -0.15142195506847064 0.17247353945668498 0.16317116140938931 0.14897961029012036 -0.06015046973685631 0.12903764718653424 0.15272966144207883 0.027739567999629386 0.16111235125483542 0.13294747877717369 0.091091212825302401 0.13418484077033857 -0.11838072228096504 -0.11555246804251607 -0.11558438705012367 -0.11560622441658708 -0.11560409346542302 -0.11560304698449247
leaf_weight=1.7508499324321729 3.8110153973102587 47.228819981217384 0.84689858555794018 7.65572442114353 16.797656446695331 36.875700816512108 7.73066372424364 3.4430194646120063 9.5790536403655988 4.8793990314006805 14.706439286470419 3.809918761253356 3.9031187146902084 8.7567746639251691 6.2966817021369925 5.3507125973701468 4.2409011125564575 8.0318453311920148 5.3452206254005423 1.5489239990711201 1.1647711917757986 1.283167704939842 1.9851088076829912 1.5178730934858322 1.4010449200868604
leaf_count=15 11 154 4 30 48 165 25 16 18 13 29 16 9 17 17 10 9 19 11 12 10 11 17 13 12
internal_value=0.0388661 0.0471434 0.0340629 0.0192313 0.0433779 -0.0133276 -0.0376243 0.0128318 0.10206 0.0731324 0.0976527 0.10499 0.0355866 0.111185 0.086476 0.114071 0.0828106 0.128532 0.1457 -0.115999 -0.115594 -0.1156 -0.115603 -0.115601 -0.115605
internal_weight=209.941 199.29 165.488 134.19 77.0485 57.1415 44.6064 50.6718 26.3767 12.5351 31.2982 30.4513 7.71304 33.8013 19.6993 13.4026 8.05192 22.7383 14.102 10.6517 9.10282 7.93804 6.65488 3.26872 3.38615
internal_count=711 621 546 469 236 233 190 170 66 43 77 73 25 75 47 30 20 48 28 90 78 68 57 28 29
is_linear=0
shrinkage=0.1


Tree=9
num_leaves=24
num_cat=0
split_feature=11 11 4 8 11 10 21 8 11 21 26 8 9 4 29 24 21 25 20 1 22 30 10
split_gain=23.0416 14.3645 14.7994 11.2171 8.05741 11.5526 10.8257 7.35384 7.04197 7.69376 5.51725 3.8698 2.75283 3.81068 5.47897 0.683213 0.655292 0.00783902 0.000729238 1.60592e-07 2.56615e-08 4.39839e-09 2.38154e-09
threshold=1.0000000180025095e-35 4240.5000000000009 0.23944739252328875 84.500000000000014 8803.0000000000018 131.00000000000003 629.76000976562511 117.50000000000001 27485.500000000004 643.73498535156261 22.413699150085453 52.500000000000007 72.500000000000014 0.29237665235996252 0.00538526475429535 0.35557506978511816 643.51498413085949 3.0219780206680302 3.5000000000000004 4.5000000000000009 1.0000000180025095e-35 48.500000000000007 165.00000000000003
decision_type=2 2 2 2 2 2 2 2 2 2 2 2 2 2 2 2 2 2 2 2 2 2 2
left_child=18 12 7 4 5 -4 -6 10 15 -10 11 -3 13 14 -2 -5 -15 -14 19 20 21 22 -1
right_child=1 2 3 8 6 -7 -8 -9 9 -11 -12 -13 17 16 -16 -17 -18 -19 -20 -21 -22 -23 -24
leaf_value=-0.11390176821364771 -0.043857659864080585 -0.13786498462290631 0.021371255171798966 0.1493817888118476 0.081957911194035268 0.10792835582353906 -0.028349497433585794 0.079670106806513194 -0.06988737992599596 0.11779683912161509 0.075020883065405941 -0.024940290060808199 0.14789700165389419 0.14294944647917224 0.10505028383716375 0.10680822045993871 0.096214709351510747 0.1424796571517942 -0.11633913196138466 -0.11385528538284406 -0.11388327721490613 -0.11389358094947646 -0.11389645420280943
leaf_weight=3.9647047221660596 4.5222420394420642 9.5281865298748034 45.231251701712608 12.497523784637457 11.666481569409369 23.395165622234344 37.479319244623184 3.5408852621912947 4.2285040467977506 4.5176694244146347 2.0169450193643561 4.4528712928295127 4.993451774120329 6.4112330526113492 5.4473990201950073 5.3973510563373557 5.639168307185173 5.7432857155799866 1.4248512238264073 1.0688305869698522 1.1775088459253309 1.0710644721984861 1.0712316185235975
leaf_count=37 15 51 146 25 36 56 158 10 18 10 7 17 10 13 12 12 13 12 12 10 11 10 10
internal_value=0.0355796 0.0430274 0.0309485 0.0419998 0.0287444 0.0508791 -0.00216416 -0.0507318 0.100598 0.0270573 -0.0795941 -0.101899 0.103484 0.0832409 0.0375054 0.136541 0.121079 0.144999 -0.114248 -0.113891 -0.113897 -0.113899 -0.113901
internal_weight=206.487 196.709 163.952 144.413 117.772 68.6264 49.1458 19.5389 26.641 8.74617 15.998 13.9811 32.7568 22.02 9.96964 17.8949 12.0504 10.7367 9.77819 8.35334 7.28451 6.107 5.03594
internal_count=711 621 546 461 396 202 194 85 65 28 75 68 75 53 27 37 26 22 90 78 68 57 47
is_linear=0
shrinkage=0.1


Tree=10
num_leaves=29
num_cat=0
split_feature=7 4 11 5 8 10 10 11 8 14 8 29 14 8 5 16 10 27 27 30 10 28 25 16 1 16 30 19
split_gain=20.0141 12.3175 13.4362 7.93438 8.38188 7.95827 6.49124 5.04843 8.93453 8.05165 6.3849 3.13767 7.72095 2.58219 4.91937 8.41691 2.35506 2.19296 2.14624 1.72663 1.64453 0.749949 0.589472 0.43377 0.0359881 0.00126654 0.000179796 2.60926e-07
threshold=1.0000000180025095e-35 0.33518731594085699 4891.5000000000009 1.4978661537170412 52.500000000000007 49223.000000000007 318.50000000000006 10174.500000000002 105.00000000000001 1526.5000000000002 30.500000000000004 0.0049354867078363904 57.000000000000007 54.500000000000007 2.6020033359527592 4.5000000000000009 46.500000000000007 2.5000000000000004 8.5000000000000018 3.5000000000000004 41.500000000000007 0.48076923191547399 3.3901531696319585 6.5000000000000009 7.5000000000000009 58.500000000000007 63.500000000000007 7.5000000000000009
decision_type=2 2 2 2 2 2 2 2 2 2 2 2 2 2 2 2 2 2 2 2 2 2 2 2 2 2 2 2
left_child=17 2 11 -4 5 -5 -6 13 9 10 -9 12 16 14 20 -16 -2 -1 23 -20 -3 -15 -10 -13 25 26 27 -19
right_child=1 7 3 4 6 -7 -8 8 22 -11 -12 18 -14 21 15 -17 -18 24 19 -21 -22 -23 -24 -25 -26 -27 -28 -29
leaf_value=0.029763474739715357 0.037118474650718762 0.078929381591900633 -0.1604541060430496 -0.024401350382202796 0.016078675393844829 0.12754894644849607 0.099472810397642344 0.025715414777019011 0.08800764073401135 0.09607480523762793 -0.15117678638050752 0.15727632203909639 -0.077664173746194068 0.11315658164841408 0.11753240349022397 -0.05914767541158919 0.14117394766852701 -0.11235236847975437 0.01920544647882922 0.10902734380637127 0.14830864940539146 0.16315228431396062 0.1393208350316813 0.11641137762361212 -0.13174708997740223 -0.11605488675757114 -0.11380252320994984 -0.11239961499496305
leaf_weight=1.1669069007039059 4.0446851402521151 5.6499750018119839 2.7993898540735236 53.432907097041607 27.477347619831562 3.6844675540924063 14.135403841733931 3.6768735796213168 4.1328573822975141 4.3159514069557181 4.5849268734455109 5.0916105806827563 3.7981659471988669 5.85201647877693 5.5334836244583112 5.2589364498853683 4.7054577767848969 1.5656265169382075 3.8577120900154096 4.806642159819603 8.6427158266305906 6.1569769680500031 4.8848407417535782 5.3027393519878387 1.1790317818522442 1.2379955798387525 1.05089446157217 4.6129211485385895
leaf_count=5 11 14 14 225 92 9 38 12 10 11 23 10 14 14 13 20 10 16 11 11 17 12 10 12 9 11 10 47
internal_value=0.0326509 0.0401125 0.0232881 0.0055632 0.0102704 -0.0145995 0.0444068 0.0782784 0.0398396 -0.0146233 -0.0724518 0.080225 0.0413952 0.100657 0.0824014 0.0314396 0.0930751 -0.0997159 0.105791 0.0690351 0.120883 0.138789 0.115804 0.136429 -0.115379 -0.113099 -0.112593 -0.112388
internal_weight=202.639 191.826 133.137 101.53 98.7301 57.1174 41.6128 58.6896 21.5954 12.5778 8.2618 31.607 12.5483 37.0941 25.0851 10.7924 8.75014 10.8134 19.0587 8.66435 14.2927 12.009 9.0177 10.3943 9.64647 8.46744 7.22944 6.17855
internal_count=711 613 457 378 364 234 130 156 66 46 35 79 35 90 64 33 21 98 44 22 31 26 20 22 93 84 73 63
is_linear=0
shrinkage=0.1


Tree=11
num_leaves=30
num_cat=0
split_feature=11 24 7 28 15 4 27 27 17 11 5 11 10 10 8 4 8 23 10 24 20 15 18 11 20 5 1 27 17
split_gain=17.1342 11.5548 11.115 7.12471 8.07719 6.87859 6.35849 5.96435 5.88691 6.8019 5.17031 5.72152 5.05 4.92474 4.33158 4.18018 4.09804 3.97168 3.14237 5.049 3.1196 3.10535 2.58935 0.0626385 0.000472626 3.32711e-06 1.31889e-06 1.94156e-08 1.38549e-08
threshold=1.0000000180025095e-35 1.0198194384574892 51.500000000000007 0.21111111342906955 0.071250345557928099 0.33606636524200445 15.500000000000002 10.500000000000002 1.5000000000000002 8720.0000000000018 4.3367564678192148 6008.0000000000009 1090.0000000000002 61.000000000000007 32.500000000000007 0.30913169682025915 68.500000000000014 -0.19560556858777997 63.500000000000007 0.36688137054443365 3.5000000000000004 0.094387188553810134 0.034190500155091293 8118.0000000000009 3.5000000000000004 4.3367564678192148 4.5000000000000009 13.500000000000002 1.5000000000000002
decision_type=2 2 2 2 2 2 2 2 2 2 2 2 2 2 2 2 2 2 2 2 2 2 2 2 2 2 2 2 2
left_child=24 5 8 4 7 6 10 -4 9 15 11 -2 -11 -8 -5 -3 -6 -12 19 -7 21 -20 -21 -16 25 26 27 28 -1
right_child=1 2 3 14 16 18 13 -9 -10 12 17 -13 -14 -15 23 -17 -18 -19 20 22 -22 -23 -24 -25 -26 -27 -28 -29 -30
leaf_value=-0.11108361022438491 0.071321427797145218 0.0062663819083203067 -0.044444368335151536 -0.013550407914574814 -0.13737741574156007 0.10600134043224568 0.015723652494633557 0.11242328954224041 0.11971896014845101 -0.14116643362363057 0.19196020029482386 0.014195280446319007 0.053755595160106695 -0.16181589818577713 -0.14737671010720707 0.099287971012375492 0.037629505650987917 0.064905510263344332 0.055568296782900241 0.03487293769084425 0.16540597899856238 0.15177432523505985 -0.10261578423166753 -0.12806176342696396 -0.1132250372646473 -0.11125435051935417 -0.11094482031715909 -0.11106416757585523 -0.11107102131249239
leaf_weight=2.8742931485176069 29.023673996329308 10.935898512601858 3.7830274999141711 4.5149325281381634 4.5596540570259085 7.4730571657419187 3.8336487710475913 6.7459549307823181 7.5046495199203482 3.9111308604478827 3.8885849118232727 44.281910568475723 2.0133402794599533 2.6371897757053375 2.1766824573278409 8.6535682082176191 1.8937528282403944 6.6984817236661893 10.288152799010279 3.5251705795526505 7.5844102501869193 4.9787260293960562 2.2403436750173569 7.3435892760753632 1.2107383012771604 0.99871458858251561 0.88911848515272129 0.98664879798889149 1.2563586831092832
leaf_count=32 76 36 17 19 25 18 14 19 19 20 8 154 6 12 11 21 6 20 29 11 15 10 9 46 12 11 10 11 14
internal_value=0.029995 0.0360934 0.00148372 -0.0415012 0.00206895 0.0536198 0.0388804 0.0560613 0.0418637 0.0189634 0.0462475 0.0368131 -0.0749252 -0.0566326 -0.0942205 0.0473583 -0.0860216 0.111572 0.0905251 0.0517573 0.112985 0.0869423 -0.018552 -0.132478 -0.111401 -0.111085 -0.111057 -0.111077 -0.11108
internal_weight=198.705 190.49 64.0362 31.0176 16.9824 126.453 90.3635 10.529 33.0186 25.5139 83.8927 73.3056 5.92447 6.47084 14.0352 19.5895 6.45341 10.5871 36.0899 13.2386 22.8513 15.2669 5.76551 9.52027 8.21587 7.00513 6.00642 5.1173 4.13065
internal_count=711 621 245 143 67 376 284 36 102 83 258 230 26 26 76 57 31 28 92 38 54 39 20 57 90 78 67 57 46
is_linear=0
shrinkage=0.1


Tree=12
num_leaves=30
num_cat=0
split_feature=7 24 29 27 29 28 24 30 15 19 2 8 7 18 10 22 5 5 11 27 2 24 2 5 11 5 20 3 27
split_gain=14.9303 10.5059 8.76225 8.5643 7.34651 6.01039 7.84488 5.95442 6.47129 7.21538 4.64061 4.18587 7.58708 12.0963 4.08608 3.82708 3.46503 5.96933 3.06776 1.93911 1.85249 1.74867 0.948669 0.212193 0.0651629 0.032179 0.000203351 9.78435e-07 1.76395e-08
threshold=1.0000000180025095e-35 0.75683665275573742 0.0025026116054505114 3.5000000000000004 0.0015673680463805797 0.70714285969734203 0.096022129058837905 43.500000000000007 0.10335893929004671 4.5000000000000009 1.5000000000000002 107.50000000000001 48.500000000000007 0.11882349848747255 182.50000000000003 -0.10731819644570349 3.4652473926544194 4.1276544332504281 9567.0000000000018 2.5000000000000004 1.0000000180025095e-35 1.4484126567840578 3.5000000000000004 3.0900083780288701 3696.0000000000005 3.7494349479675297 3.5000000000000004 4.5000000000000009 13.500000000000002
decision_type=2 2 2 2 2 2 2 2 2 2 2 2 2 2 2 2 2 2 2 2 2 2 2 2 2 2 2 2 2
left_child=19 2 4 20 5 6 -2 8 9 -5 -7 12 18 -14 -10 -6 21 -18 -4 -1 -3 -9 -17 -13 26 -22 27 28 -21
right_child=1 3 11 7 15 10 -8 16 14 -11 -12 23 13 -15 -16 22 17 -19 -20 24 25 -23 -24 -25 -26 -27 -28 -29 -30
leaf_value=0.025087514777942906 0.067553196500432608 -0.0086113520550430023 0.093122493331182443 -0.087567325279116148 0.0072392501271957279 0.022955593748499106 -0.14124821098366711 0.17088953471858895 -0.14922144597034498 0.026327535392333304 0.16001711902124813 0.11275810087737775 -0.056416623737550776 0.15283494967862335 0.020528301119557064 -0.15730497262679002 -0.077903033496298263 0.12078292596014273 0.014484516931329242 -0.10991571095827857 -0.14134274976459954 0.078592326617207761 -0.068575679168468573 0.14147347570926663 -0.13914548792264655 -0.12486141783497651 -0.11143646041482612 -0.10979549964756107 -0.10990093265512682
leaf_weight=1.1580950841307629 4.1283091604709687 1.561696209013461 40.699689194560051 6.192726492881774 4.0214277654886246 4.6352127194404584 3.1895710974931717 3.4904214888811094 4.1750227883458129 54.634596474468708 5.2889264076948166 4.0711467862129194 10.299906536936758 3.7751408517360678 2.1474014222621918 3.1397071331739408 3.1468989476561537 2.9108454138040543 5.649476930499076 4.514053061604498 2.6617736667394638 4.9835675731301308 1.9554688930511472 6.9947128891944885 0.86422479152679432 2.1347128301858902 0.99446933716535557 0.81249734759330738 0.98367973417043675
leaf_count=5 12 8 101 29 13 14 16 7 21 188 12 10 41 8 8 16 14 9 18 55 14 16 9 15 5 14 11 10 12
internal_value=0.02745 0.0336447 0.0561949 0.00858197 0.00691254 0.0453011 -0.023455 0.0172838 0.00472367 0.0147321 0.0960006 0.0743655 0.0640103 -0.000292183 -0.0915662 -0.0656908 0.075323 0.0175688 0.0835373 -0.0960114 -0.103208 0.116609 -0.123252 0.130909 -0.113179 -0.134008 -0.110107 -0.109898 -0.109913
internal_weight=195.215 185.888 97.8487 88.0397 26.3586 17.242 7.31788 81.6815 67.1497 60.8273 9.92414 71.4901 60.4242 14.075 6.32242 9.1166 14.5317 6.05774 46.3492 9.32702 6.35818 8.47399 5.09518 11.0659 8.16892 4.79649 7.3047 6.31023 5.49773
internal_count=711 613 285 328 92 54 28 292 246 217 26 193 168 49 29 38 46 23 119 98 36 23 25 25 93 28 88 77 67
is_linear=0
shrinkage=0.1


Tree=13
num_leaves=27
num_cat=0
split_feature=11 11 8 7 1 22 25 10 14 21 16 22 10 8 11 28 9 9 22 7 25 20 30 1 30 10
split_gain=12.8859 9.63948 8.72329 6.80062 6.33542 6.82412 6.20386 7.63539 6.6685 5.29763 4.69186 5.15332 4.46717 5.69518 4.38384 3.07078 2.62286 2.57948 2.45862 1.28611 0.00381904 0.000321663 8.1941e-06 7.12765e-07 1.12516e-08 3.08118e-09
threshold=1.0000000180025095e-35 4079.5000000000005 69.500000000000014 50.500000000000007 1.5000000000000002 -0.23349589109420774 19.834210395812992 31.500000000000004 804.50000000000011 675.68002319335949 57.500000000000007 -0.15943467617034909 31.500000000000004 117.50000000000001 11033.000000000002 0.94243422150611889 72.500000000000014 55.500000000000007 -1.0000000180025095e-35 19.500000000000004 3.0219780206680302 3.5000000000000004 48.500000000000007 4.5000000000000009 1.5000000000000002 122.00000000000001
decision_type=2 2 2 2 2 2 2 2 2 2 2 2 2 2 2 2 2 2 2 2 2 2 2 2 2 2
left_child=21 16 3 6 9 -6 7 -3 -8 -5 12 -12 13 -4 -14 -13 17 19 -19 -2 -18 22 23 24 -1 -26
right_child=1 2 10 4 5 -7 8 -9 -10 -11 11 15 14 -15 -16 -17 20 18 -20 -21 -22 -23 -24 -25 25 -27
leaf_value=-0.10887477303984719 0.067008027141691781 -0.059245322964567929 -0.098656081682910443 -0.10210212449681431 0.049152063011137677 -0.053809812638900216 0.10053767075031282 0.028734094193411004 -0.0086796691238188797 0.080699661287990471 0.085318323008974101 -0.14231568536692449 0.13634450541095935 0.084884557218405723 0.056082228337156405 0.0092952188672649483 0.13174302172668539 0.075732370877873822 -0.039252608887547176 0.13581906770037253 0.12757368571639813 -0.1108334895041307 -0.1092181090847326 -0.10877695590601505 -0.10888790865963803 -0.10888056178286601
leaf_weight=1.1979034170508374 7.1510574221611076 13.927031263709067 3.0355488061904898 12.803413927555082 14.305378623306749 11.703510962426664 16.880636081099514 33.815547026693821 8.3585706651210767 1.8093732446432103 3.7128589451313019 2.7269787639379484 12.860337004065515 3.8157289773225784 14.452741310000418 2.6189661026000977 4.1674735248088819 3.6792310923337936 3.7598752379417411 4.3797929883003235 4.6463455855846405 1.0254017710685728 0.76738374680280674 0.74170932173728932 2.398779228329659 0.74909875541925419
leaf_count=16 19 55 13 71 50 56 43 110 32 6 9 15 29 10 41 9 10 9 12 10 12 12 10 10 32 10
internal_value=0.0251723 0.0301802 0.0205622 0.00601454 -0.0267804 0.00282116 0.0242682 0.00306954 0.0643677 -0.0794674 0.0587978 -0.00518535 0.0757632 0.00356446 0.0938736 -0.0680419 0.0844693 0.0635262 0.0176166 0.0931447 0.129545 -0.1092 -0.108914 -0.108868 -0.108883 -0.108886
internal_weight=191.491 184.61 156.827 113.603 40.6217 26.0089 72.9818 47.7426 25.2392 14.6128 43.2232 9.0588 34.1644 6.85128 27.3131 5.34594 27.7838 18.97 7.43911 11.5309 8.81382 6.88028 5.85487 5.08749 4.34578 3.14788
internal_count=711 621 549 423 183 106 240 165 75 77 126 33 93 23 70 24 72 50 21 29 22 90 78 68 58 42
is_linear=0
shrinkage=0.1


Tree=14
num_leaves=31
num_cat=0
split_feature=7 4 13 21 5 24 10 24 18 30 26 8 5 29 10 22 28 29 10 25 10 22 7 20 7 24 1 13 30 21
split_gain=11.2283 8.11458 9.28724 8.85382 10.8607 6.26699 6.31448 6.23779 5.79271 5.66917 6.11991 5.57099 5.56428 5.13759 9.54925 3.60538 3.4791 4.05615 3.25078 3.19564 2.33127 3.51082 1.59469 1.02889 0.0337772 0.0334962 0.00801069 0.0010152 5.86719e-06 1.55999e-07
threshold=1.0000000180025095e-35 0.29237665235996252 10.500000000000002 634.16497802734386 3.8562219142913823 0.51767989993095409 8.5000000000000018 1.5242456793785097 0.028708499856293205 20.500000000000004 9.6563000679016131 16.500000000000004 3.233849406242371 0.0034910175018012528 117.50000000000001 -0.23349589109420774 0.82575756311416637 0.0071284747682511815 36.500000000000007 15.988030433654787 157.00000000000003 -0.15267756581306455 48.500000000000007 4.5000000000000009 56.500000000000007 0.98200759291648876 7.5000000000000009 4104.0000000000009 48.500000000000007 643.59500122070324
decision_type=2 2 2 2 2 2 2 2 2 2 2 2 2 2 2 2 2 2 2 2 2 2 2 2 2 2 2 2 2 2
left_child=23 2 3 8 -5 6 -3 9 -2 12 -11 -9 -4 14 18 -6 17 -15 -7 -18 21 -8 -22 26 -13 -16 27 28 29 -1
right_child=1 5 7 4 15 13 20 11 -10 10 -12 24 -14 16 25 -17 19 -19 -20 -21 22 -23 -24 -25 -26 -27 -28 -29 -30 -31
leaf_value=-0.10792309281080825 0.037582241177589168 -0.066430938447548785 -0.060834782547449298 -0.16178196670700171 -0.0047680816680593895 -0.036840968397551112 -0.0081668756777513885 0.02376931557093076 0.17477526771451668 0.035466809978870174 -0.12421544439262494 -0.13735309723831757 0.034253636276049611 -0.0077535154922559295 -0.16029312757479566 0.096752994170906145 0.036608424604273375 0.0702326676373171 0.10692345999565012 0.12760220294257676 0.14705141342803249 0.099329000960489577 0.071784966825406721 -0.018967772366775163 -0.12346067476245204 -0.14215583478637031 -0.11867870712274226 -0.11214159401625345 -0.10826569879949482 -0.10796543664104455
leaf_weight=1.2243250012397746 5.2903596609830874 2.5394409447908393 7.497832015156745 3.1160154491662988 7.1875757500529316 2.8219525441527349 4.1169938743114463 3.4940386861562711 7.358271136879921 3.7947693169116956 6.5305588692426682 2.6533578708767891 34.334073789417744 16.64203962683678 2.2630980759859085 6.8149487078189823 7.6177680939435941 11.129337325692175 3.5533090084791183 7.8230903297662735 10.516359210014341 11.595540612936022 3.8438707143068305 1.5390668511390684 5.1411522328853607 1.8511161282658575 0.89581216126680363 0.67167738825082768 0.70015303790569294 3.0067146718502045
leaf_count=18 18 10 33 15 27 11 14 12 16 12 32 14 114 57 10 20 26 32 10 18 24 31 11 9 36 10 9 8 10 44
internal_value=0.0231455 0.0283226 0.00786427 0.0539469 0.00706723 0.0504162 0.0849937 -0.0137566 0.117394 0.000830757 -0.0655289 -0.0811554 0.0172103 0.0294179 -0.0333608 0.0446416 0.044657 0.0234993 0.0432874 0.0827103 0.0977804 0.071163 0.126904 -0.0924869 -0.12819 -0.152133 -0.109898 -0.108494 -0.107998 -0.107953
internal_weight=187.565 179.527 93.213 29.7672 17.1185 86.3139 32.6122 63.4458 12.6486 52.1572 10.3253 11.2885 41.8319 53.7017 10.4895 14.0025 43.2122 27.7714 6.37526 15.4409 30.0728 15.7125 14.3602 8.03775 7.79451 4.11421 6.49868 5.60287 4.93119 4.23104
internal_count=711 613 349 96 62 264 90 253 34 191 44 62 147 174 41 47 133 89 21 44 80 45 35 98 50 20 89 80 72 62
is_linear=0
shrinkage=0.1


Tree=15
num_leaves=26
num_cat=0
split_feature=11 11 8 10 11 26 22 19 8 1 11 1 18 8 13 25 28 8 8 22 20 30 1 13 30
split_gain=9.84455 8.11737 7.15634 5.36274 12.1827 6.37295 7.63489 5.78531 5.77995 5.05483 4.02543 5.72232 4.80572 1.73136 2.6343 3.01915 2.47844 1.38585 0.419849 0.149686 0.000347921 4.56906e-06 7.37182e-07 2.39059e-08 5.94205e-09
threshold=1.0000000180025095e-35 4079.5000000000005 87.500000000000014 210.00000000000003 18159.000000000004 20.087850570678714 -0.59421941637992848 14.500000000000002 52.500000000000007 4.5000000000000009 27485.500000000004 4.5000000000000009 0.10762549936771394 51.500000000000007 4.5000000000000009 10.494612216949465 0.89181286096572887 107.50000000000001 200.00000000000003 -1.0000000180025095e-35 3.5000000000000004 48.500000000000007 4.5000000000000009 279.00000000000006 1.5000000000000002
decision_type=2 2 2 2 2 2 2 2 2 2 2 2 2 2 2 2 2 2 2 2 2 2 2 2 2
left_child=20 13 3 5 8 7 -7 -3 -5 -6 17 12 -12 14 -2 16 -16 -4 -19 -15 21 22 23 24 -1
right_child=1 2 10 4 9 6 -8 -9 -10 -11 11 -13 -14 19 15 -17 -18 18 -20 -21 -22 -23 -24 -25 -26
leaf_value=-0.10714433456021684 0.13568649737206631 -0.014446030271936937 0.046660585983193531 0.035536820158433666 -0.13354245387750671 -0.090437114865890345 0.078281256389829315 -0.14246729338510408 0.12705400348944829 0.055804743654374128 -0.11203901590388615 0.12889865878672288 0.060069624681808612 0.12758038685200682 0.018591950331503359 -0.040020274961600169 0.11395156179822299 0.12989607950341117 0.091644351900256216 0.10000400438791113 -0.10931730573898889 -0.10741864351457671 -0.10703025001162512 -0.1071309584520974 -0.10715494457826238
leaf_weight=0.68456600978970517 3.6473443806171479 63.781266167759895 4.238903850317004 25.024831302464008 5.2326546907424918 3.3101897537708309 14.1358210965991 3.7367059588432303 9.5288989692926389 1.9298975169658659 3.7761184573173505 2.973667711019516 2.8445007428526878 4.5351696312427521 5.4201042801141721 3.5160780400037757 5.4823493361473083 6.6531703472137433 5.045390784740448 3.4778411984443647 0.89240393042564381 0.63826478645205487 0.61357699707150448 0.62131977081298817 2.3055977337062359
leaf_count=11 9 255 12 81 31 14 42 20 22 7 18 7 9 12 16 12 13 17 14 10 12 10 10 10 37
internal_value=0.0212184 0.0253738 0.0165418 0.00680741 0.0361706 -0.00760956 0.0462688 -0.0215312 0.0607746 -0.0825242 0.0648404 0.0136641 -0.0380938 0.0769232 0.0597631 0.0405574 0.066544 0.0956483 0.113399 0.115612 -0.107502 -0.107169 -0.107132 -0.107149 -0.107153
internal_weight=184.047 178.291 152.212 126.68 41.7163 84.964 17.446 67.518 34.5537 7.16255 25.5318 9.59429 6.62062 26.0789 18.0659 14.4185 10.9025 15.9375 11.6986 8.01301 5.75573 4.86333 4.22506 3.61148 2.99016
internal_count=711 621 549 472 141 331 56 275 103 38 77 34 27 72 50 41 29 43 31 22 90 78 68 58 48
is_linear=0
shrinkage=0.1


Tree=16
num_leaves=27
num_cat=0
split_feature=11 11 8 11 27 10 10 11 9 0 22 9 9 23 16 9 10 25 20 8 24 20 30 3 10 27
split_gain=8.61069 7.19786 7.27337 7.97331 5.26571 5.3285 4.0531 5.63641 5.02303 5.08278 4.12299 3.97613 5.50252 4.95159 4.01549 4.69034 3.45812 1.2298 0.645042 0.0748485 0.0299833 0.000253391 3.3326e-06 5.34024e-07 1.35428e-08 3.71689e-09
threshold=1.0000000180025095e-35 4891.5000000000009 59.500000000000007 26827.000000000004 16.500000000000004 49223.000000000007 291.00000000000006 14439.500000000002 129.50000000000003 3.5000000000000004 -0.15943467617034909 69.500000000000014 55.500000000000007 -0.058376237750053399 31.500000000000004 23.500000000000004 4873.5000000000009 44.814104080200202 1.5000000000000002 80.000000000000014 1.0983871221542361 3.5000000000000004 48.500000000000007 4.5000000000000009 567.00000000000011 12.500000000000002
decision_type=2 2 2 2 2 2 2 2 2 2 2 2 2 2 2 2 2 2 2 2 2 2 2 2 2 2
left_child=21 11 3 4 5 -3 8 19 9 -4 -10 12 14 -14 15 -2 -9 -6 -13 -8 -5 22 23 24 25 -1
right_child=1 2 6 20 17 -7 7 16 10 -11 -12 18 13 -15 -16 -17 -18 -19 -20 -21 -22 -23 -24 -25 -26 -27
leaf_value=-0.10642782001475554 -0.0039493918340305452 0.0028913494759967894 -0.079117048897072662 -0.13260296531938373 -0.14395623157881349 0.12290863351243707 0.13962460998585938 0.071777221703727676 0.10367126471629617 0.066698345847890542 0.011296937022609879 0.086875497958149542 0.028231739264247463 -0.1412065731819678 -0.041262236910352856 0.12743153262590601 -0.044714118260600171 -0.037419413336810328 0.13248047782439487 0.1217571447114157 -0.11709226931073552 -0.10836018867074924 -0.10666394484053308 -0.10631668852019534 -0.10640985446158797 -0.10641896962203666
leaf_weight=1.9861923977732661 3.6939000040292802 73.314903981983662 7.697113938629629 2.9418191388249388 2.7460415959358206 3.8958555608987799 5.7716026902198809 6.6923088878393155 8.3184278160333651 3.4674317836761475 11.527787096798418 6.4755176305770856 4.8743490129709244 2.6691949367523184 2.6643479317426673 10.278103947639464 4.1153834760189056 1.7896764725446699 5.9522665143013 3.9484906494617462 2.1623448580503464 0.81424764543771733 0.58140322193503369 0.55872320011258114 0.67930234968662251 0.62347465008497227
leaf_count=35 12 281 34 18 14 9 13 20 21 10 41 19 14 10 9 25 17 8 16 12 18 12 10 10 12 11
internal_value=0.0195323 0.0233157 0.0128848 -0.00477547 0.00279565 0.00894711 0.0426451 0.0771128 0.0198289 -0.0338304 0.0500151 0.0627479 0.0391206 -0.031722 0.0712433 0.0926972 0.0274193 -0.10192 0.108718 0.132366 -0.126032 -0.106739 -0.106441 -0.106407 -0.106422 -0.106426
internal_weight=180.24 174.997 138.389 86.8506 81.7465 77.2108 51.5385 20.5278 31.0108 11.1645 19.8462 36.6077 24.1799 7.54354 16.6364 13.972 10.8077 4.53572 12.4278 9.72009 5.10416 5.24334 4.4291 3.84769 3.28897 2.60967
internal_count=711 621 516 348 312 290 168 62 106 44 62 105 70 24 46 37 37 22 35 25 36 90 78 68 58 46
is_linear=0
shrinkage=0.1


Tree=17
num_leaves=27
num_cat=0
split_feature=11 4 29 24 11 24 11 27 11 21 21 26 24 13 13 27 18 26 24 11 22 18 28 1 13 27
split_gain=7.54747 6.88561 8.39647 6.39349 5.59427 5.17955 7.3044 6.99241 7.84899 6.14843 4.09957 3.81327 2.73076 2.12444 1.83209 2.93463 3.39599 0.454664 0.1172 0.0431384 0.000137417 1.35765e-05 2.26051e-05 4.98781e-07 5.95665e-08 2.38549e-09
threshold=1.0000000180025095e-35 0.23944739252328875 0.0037647066637873654 0.89246070384979259 4891.5000000000009 0.51767989993095409 30453.500000000004 9.5000000000000018 6705.0000000000009 680.97500610351574 627.82498168945324 20.087850570678714 0.33250825107097631 1824.0000000000002 6.5000000000000009 12.500000000000002 0.050641000270843513 15.681250095367433 0.61337512731552135 7197.0000000000009 0.30746585130691534 0.050641000270843513 0.61250001192092907 3.5000000000000004 270.00000000000006 10.500000000000002
decision_type=2 2 2 2 2 2 2 2 2 2 2 2 2 2 2 2 2 2 2 2 2 2 2 2 2 2
left_child=20 2 13 12 14 6 10 9 -9 -7 -6 19 -4 18 17 16 -16 -3 -2 -5 21 23 -23 24 25 -1
right_child=1 4 3 11 5 7 -8 8 -10 -11 -12 -13 -14 -15 15 -17 -18 -19 -20 -21 -22 22 -24 -25 -26 -27
leaf_value=-0.10577768881931651 -0.16011446092269435 0.088268149041687963 -0.0080897949116924099 -0.14208971047881641 0.13761339504586004 -0.035255474412980409 -0.08805557357874523 -0.057595919646434873 0.056477938840711096 0.10751218726633566 0.04725462097990088 0.048143737835266591 0.10641607495453759 -0.016427510485999882 0.090643065137671383 -0.018691988634353271 -0.02634024098933507 0.13916645859362592 -0.12945413576323983 -0.12032053565876365 -0.10753376132775634 -0.10574698021401807 -0.10660518056246326 -0.10566177615378372 -0.10573822212858658 -0.10576990894645528
leaf_weight=1.2909388989210127 3.646313130855563 3.7096796482801464 3.3003212884068471 1.9185274690389627 6.0142593830823889 38.038378551602364 3.5520412847399703 7.4347809553146353 31.961946569383144 3.2763283997774115 30.405818246304989 1.739609360694885 5.6451397985219955 1.527381472289562 15.338472053408628 4.4666694700717917 2.9604884386062613 3.3308159708976746 1.8944817930459974 1.7321484014391897 0.55705188959836949 0.66804894432425477 0.56777974590659142 0.55765175074338902 0.56448759138584126 0.56733082979917515
leaf_count=25 19 12 14 10 16 165 17 28 104 8 99 7 14 8 41 15 10 8 13 13 9 13 10 11 11 11
internal_value=0.0179773 0.0214216 -0.0316483 0.0123307 0.0289697 0.0193879 0.0488261 0.00480869 0.0349504 -0.0239337 0.0621761 -0.0737001 0.0641705 -0.120847 0.0677659 0.0539785 0.071717 0.112348 -0.149631 -0.131761 -0.106058 -0.105863 -0.106141 -0.105747 -0.105767 -0.105775
internal_weight=176.667 171.894 21.4039 14.3357 150.49 120.684 39.9721 80.7114 39.3967 41.3147 36.4201 5.39029 8.94546 7.06818 29.8061 22.7656 18.299 7.0405 5.54079 3.65068 4.77329 4.21624 1.23583 2.98041 2.42276 1.85827
internal_count=711 621 98 58 523 437 132 305 132 173 115 30 28 40 86 66 51 20 32 23 90 81 23 58 47 36
is_linear=0
shrinkage=0.1


Tree=18
num_leaves=30
num_cat=0
split_feature=4 13 21 10 10 5 10 23 8 26 5 21 24 9 29 25 23 18 14 29 18 9 13 13 4 14 5 22 27
split_gain=7.01473 6.90714 8.03672 5.22334 4.74558 4.76878 4.72738 4.63146 4.58764 4.2713 4.20349 4.29182 4.04027 4.47133 8.62433 6.26309 4.13729 3.7884 2.64447 4.76851 2.48328 2.07786 1.22778 1.1983 0.947899 0.937628 0.426102 0.338196 0.0872443
threshold=0.31904487311840063 10.500000000000002 634.16497802734386 370774.00000000006 4.5000000000000009 1.2424533367156985 6.5000000000000009 -0.99314710497856129 78.500000000000014 17.111249923706058 4.1276544332504281 647.68499755859386 0.61337512731552135 129.50000000000003 0.0054706064984202394 25.458333969116214 0.027493336237967018 0.02454050071537495 344.50000000000006 0.0012530131498351695 0.029777000658214096 163.50000000000003 4.5000000000000009 71.500000000000014 0.27810940146446234 1298.0000000000002 3.5259279012680058 0.09757524356245996 10.500000000000002
decision_type=2 2 2 2 2 2 2 2 2 2 2 2 2 2 2 2 2 2 2 2 2 2 2 2 2 2 2 2 2
left_child=1 2 17 4 28 -6 9 -4 -7 26 11 -9 18 14 15 -14 -16 -1 19 22 -12 -15 -8 -21 -19 27 -2 -20 -3
right_child=6 3 7 -5 5 8 12 10 -10 -11 20 -13 13 21 16 -17 -18 24 25 23 -22 -23 -24 -25 -26 -27 -28 -29 -30
leaf_value=0.031297909672870133 -0.1520908410884568 -0.12588728751144471 -0.15177795870620436 0.13150298008057584 -0.15203125384633009 -0.024388155832559516 0.013076251098589252 -0.14511575879642555 0.045549989507599607 0.062724811450213303 0.10226753517738946 0.017256567637935021 -0.11527390827810423 0.16006301372252654 0.078040358862648096 0.025625194250530222 -0.048508564849022218 0.10948751980647005 0.11164093369927613 0.045573989271827188 0.0071163993562427157 0.053711021440045428 -0.14407011532151323 0.10956379662907643 0.17881798446193797 0.073729941425027604 -0.081266126575517794 0.15189136400528641 -0.15951378738100203
leaf_weight=5.0459770001471025 1.7452106662094586 1.4577942490577691 1.878224991261958 2.2685941979289046 2.5140948556363574 51.175563719123602 0.77041709050536455 2.7454619407653853 11.48374906554818 2.1397554278373718 5.1292457766830921 3.9989585652947426 7.0865268781781214 3.0136545300483695 14.445700921118261 5.6862062215805054 3.1460881233215323 4.1820403635501862 4.4946488589048368 6.904815733432768 5.8952863551676273 4.7053767517209053 1.4018339924514291 5.0791991800069809 3.7317103892564774 4.4929152727127066 1.6550280898809431 3.8978233188390732 1.639087028801441
leaf_count=18 10 12 10 6 19 246 5 16 45 7 19 18 33 6 40 18 13 13 13 23 25 14 15 14 9 14 11 10 9
internal_value=0.0164466 -0.000181503 0.0378797 -0.0177755 -0.0227359 -0.0169887 0.0407178 -0.00244137 -0.0115704 -0.0479626 0.0133439 -0.0488406 0.0482615 0.0272732 0.00999699 -0.052548 0.0554085 0.0990072 0.0778201 0.047985 0.0513862 0.0952328 -0.0883361 0.0726949 0.14218 0.110598 -0.117618 0.130335 -0.143685
internal_weight=173.811 103.146 32.6069 70.5389 68.2703 65.1734 70.6652 19.6472 62.6593 5.53999 17.769 6.74442 65.1252 38.0836 30.3645 12.7727 17.5918 12.9597 27.0417 14.1563 11.0245 7.71903 2.17225 11.984 7.91375 12.8854 3.40024 8.39247 3.09688
internal_count=711 465 128 337 331 310 246 88 291 28 78 34 218 124 104 51 53 40 94 57 44 20 20 37 22 37 21 23 21
is_linear=0
shrinkage=0.1


Tree=19
num_leaves=25
num_cat=0
split_feature=11 11 8 4 16 10 11 29 11 21 29 1 20 13 29 13 21 27 8 20 13 4 8 10
split_gain=6.27679 5.58384 5.61722 5.12304 5.05575 5.58339 3.73563 8.49336 3.68598 6.3378 2.62672 2.99043 2.03043 2.38529 2.85203 1.81203 0.834465 0.272182 0.128405 0.000124169 1.79909e-05 1.06574e-05 7.47865e-06 2.14351e-06
threshold=1.0000000180025095e-35 4891.5000000000009 93.500000000000014 0.23944739252328875 169.50000000000003 210.00000000000003 10174.500000000002 0.0054706064984202394 27485.500000000004 641.70001220703136 0.0036109276115894322 1.5000000000000002 1.0000000180025095e-35 6.5000000000000009 0.0068743780720978984 129.50000000000003 637.66000366210949 7.5000000000000009 59.500000000000007 3.5000000000000004 5.5000000000000009 0.32458584010601049 59.500000000000007 9.5000000000000018
decision_type=2 2 2 2 2 2 2 2 2 2 2 2 2 2 2 2 2 2 2 2 2 2 2 2
left_child=19 10 3 6 5 -5 7 -3 15 -10 11 -2 -12 -14 -15 17 -6 -4 -8 20 -1 22 23 -22
right_child=1 2 8 4 16 -7 18 -9 9 -11 12 -13 13 14 -16 -17 -18 -19 -20 -21 21 -23 -24 -25
leaf_value=-0.10551195654860601 -0.070501469079982754 0.086753935372335486 0.091715966758078221 -0.0034408831038792776 -0.045602609857193423 0.049749220929954832 -0.12088400754828788 -0.13450304185367307 -0.11165526639716949 0.066829159020071763 0.11845050455910788 0.051304885681388995 0.12150055696373074 0.057226405395021641 -0.054081487186636058 0.025320470433739556 -0.13787104709651937 0.12774631642773426 -0.15777888839117163 -0.10660576979253218 -0.10477638617577585 -0.1045116473990539 -0.1054117407514835 -0.10503064652121921
leaf_weight=0.82727015390992109 3.1518297344446164 3.7365462034940702 3.2908307164907473 68.104958772659302 1.6205653995275486 27.786854423582554 3.4495227783918381 3.2387531995773315 2.9737995341420156 6.0104850903153419 6.6418907046318081 5.5907517224550247 4.0557341575622585 11.291706085205076 2.8914444148540488 3.0274048447608939 2.48039710521698 5.7776728421449661 1.2983386144042013 0.65007103607058514 0.43335958570242006 0.41285081952810276 0.48630742356181134 1.4115311056375501
leaf_count=17 13 12 11 262 9 92 27 20 16 18 19 16 13 34 10 11 14 16 8 12 10 10 10 31
internal_value=0.0150862 0.0181408 0.00892376 -1.02799e-05 0.00732209 0.0119722 -0.0625518 -0.0159795 0.0562703 0.00775079 0.0545437 0.0073919 0.0711119 0.053873 0.0345346 0.0923084 -0.10141 0.114671 -0.130973 -0.105335 -0.105103 -0.10498 -0.105063 -0.104971
internal_weight=170.641 166.419 132.796 111.716 99.9928 95.8918 11.7232 6.9753 21.0802 8.98428 33.6234 8.74258 24.8808 18.2389 14.1832 12.0959 4.10096 9.0685 4.74786 4.22139 3.57132 2.74405 2.3312 1.84489
internal_count=711 621 516 444 377 354 67 32 72 34 105 29 76 57 44 38 23 27 35 90 78 61 51 41
is_linear=0
shrinkage=0.1


Tree=20
num_leaves=25
num_cat=0
split_feature=4 11 28 19 8 25 15 30 7 8 7 15 29 2 11 24 21 16 18 15 11 2 8 5
split_gain=5.69547 6.15068 5.07384 6.5316 5.07799 4.3602 5.03313 4.46054 6.28994 4.57535 3.59131 3.38773 3.37186 2.312 3.3703 2.98703 1.64112 1.59819 1.5716 1.16333 0.942864 0.817357 0.0491274 0.00128044
threshold=0.31904487311840063 45579.500000000007 0.61250001192092907 5.5000000000000009 9.0000000000000018 202.54650878906253 0.119804784655571 20.500000000000004 50.500000000000007 52.500000000000007 27.500000000000004 0.087536558508873 0.0071284747682511815 1.5000000000000002 10174.500000000002 1.0923295617103579 674.54501342773449 4.5000000000000009 0.032086500898003585 0.10443516448140146 6533.5000000000009 2.5000000000000004 311.50000000000006 2.7058230638504033
decision_type=2 2 2 2 2 2 2 2 2 2 2 2 2 2 2 2 2 2 2 2 2 2 2 2
left_child=1 5 3 -2 17 6 7 8 -1 -9 21 13 -12 14 20 16 -15 -5 -8 -13 -4 -6 23 -3
right_child=2 22 11 4 10 -7 18 9 -10 -11 12 19 -14 15 -16 -17 -18 -19 -20 -21 -22 -23 -24 -25
leaf_value=0.036318370691747842 -0.11653278046668364 -0.11851131470888687 0.013310854100749184 -0.012681481736586423 0.056825041235505469 0.086432403093686425 -0.16359046237676547 -0.067532510415087746 -0.034752580592062848 0.025610094039107537 -0.00600393544941971 0.16305850821284384 0.076915068722199026 0.13061217592574445 -0.085524851221434606 -0.0026794227253489149 0.036297327606964767 -0.14135174087582647 -0.034599396626195961 0.086550924774646404 0.09299381161616399 0.12421819184315684 -0.13995162117508131 -0.11407858354578349
leaf_weight=45.870457116514444 3.574090249836444 1.2544907778501508 3.3342596888542229 1.7861057035624974 2.906117673963311 5.9708772450685492 2.3748616240918632 14.834092747420074 17.092978194355965 8.1831424720585328 15.991985574364664 3.8059637397527686 7.0731935501098624 6.6064838729798776 2.7099757641553879 3.6515059769153586 2.5597745776176453 2.1006199866533279 1.5682967640459535 4.1594787985086441 2.6774001717567444 4.7265209183096886 1.3081861734390257 1.3560690656304357
leaf_count=189 17 10 12 8 12 19 15 88 82 31 61 8 20 21 11 15 9 12 11 15 8 17 7 13
internal_value=0.0138465 -0.00133689 0.0362443 0.0121651 0.0254652 0.00368126 -0.00181336 0.00325309 0.0170244 -0.0344182 0.0390999 0.0673859 0.0194241 0.0467798 0.00706212 0.0738051 0.104274 -0.0822226 -0.112287 0.123107 0.0487991 0.0985583 -0.124135 -0.116209
internal_weight=167.477 99.8135 67.6635 38.1586 34.5845 95.8947 89.9238 85.9807 62.9634 23.0172 30.6978 29.5048 23.0652 21.5394 8.72164 12.8178 9.16626 3.88673 3.94316 7.96544 6.01166 7.63264 3.91875 2.61056
internal_count=711 465 246 147 130 435 416 390 271 119 110 99 81 76 31 45 30 20 26 23 20 29 30 23
is_linear=0
shrinkage=0.1


Tree=21
num_leaves=27
num_cat=0
split_feature=29 27 11 9 8 9 9 28 29 25 10 0 29 27 18 5 23 5 23 29 26 1 11 13 11 29
split_gain=5.4679 6.05589 4.3674 4.30945 4.19499 10.2288 4.46537 3.92625 4.56586 4.46083 3.53526 3.37745 2.54945 2.50027 2.34667 1.92008 2.0121 1.81983 2.54945 1.48637 0.882801 0.819099 0.762122 1.04533 0.0915174 0.0270771
threshold=0.0020997559186071162 3.5000000000000004 3901.0000000000005 138.50000000000003 62.500000000000007 113.50000000000001 107.50000000000001 0.76388889551162731 0.0014506644802168014 10.718598842620851 212.50000000000003 2.5000000000000004 0.0083102989010512846 12.500000000000002 0.11324800178408624 3.7494349479675297 -1.0000000180025095e-35 3.7494349479675297 -1.0000000180025095e-35 0.0014506644802168014 11.095499992370607 1.5000000000000002 3696.0000000000005 991.00000000000011 7683.5000000000009 0.0075535194482654342
decision_type=2 2 2 2 2 2 2 2 2 2 2 2 2 2 2 2 2 2 2 2 2 2 2 2 2 2
left_child=3 10 15 7 5 6 -4 17 9 11 14 -9 13 -6 20 16 -3 22 -19 -5 21 -2 23 -1 -24 -7
right_child=1 2 4 19 12 25 -8 8 -10 -11 -12 -13 -14 -15 -16 -17 -18 18 -20 -21 -22 -23 24 -25 -26 -27
leaf_value=-0.11504595501449522 -0.027451377131137933 0.099065108658681622 0.012896880122180369 0.088137516717537556 0.078753334795078817 -0.11835242173000769 0.13351498190355002 -0.093460414467427769 -0.12937143682774777 0.16628874273399816 0.051808175271096463 0.061873380264212408 -0.03105396283474254 0.011305820179429662 0.013688491918876314 0.12479814355221837 -0.0028201969451851373 -0.13166091024334567 0.023818174831817796 -0.0047674859229033875 -0.15912617606752361 -0.12905695139693005 -0.16045021884528121 0.03254943805178661 -0.13193569854207796 -0.13322251256774717
leaf_weight=1.6842595115304031 1.4917961135506614 3.8944319933652878 72.6427301466465 3.4227887056767932 20.945553250610836 3.6478508338332167 3.2046539932489386 2.6225803792476654 2.2028072774410248 1.9110616594552992 2.4212359115481377 3.0021049156785011 3.3606033474206916 7.4513271301984778 1.7851012721657751 5.702448308467865 3.8590297847986204 1.7528296522796152 2.6476947963237762 3.4657254293560982 2.7105339542031288 1.6948014572262762 1.767260670661926 0.67103135958313931 3.099879689514637 1.8433325290679929
leaf_count=32 10 13 260 14 68 30 10 26 15 4 9 19 13 27 7 18 14 16 19 14 15 11 9 8 19 11
internal_value=0.0126662 0.0209454 0.0268934 -0.0273833 0.0204856 0.00845145 0.0179932 -0.0495626 -0.00272621 0.034294 -0.0535578 -0.010553 0.0513081 0.0610551 -0.0867664 0.0807507 0.0483551 -0.0888056 -0.0381127 0.0413955 -0.117175 -0.0814906 -0.119692 -0.0729955 -0.142289 -0.123344
internal_weight=164.905 136.655 126.552 28.25 113.096 81.3386 75.8474 21.3615 9.73855 7.53575 10.1035 5.62469 31.7575 28.3969 7.68223 13.4559 7.75346 11.623 4.40052 6.88851 5.89713 3.1866 7.22243 2.35529 4.86714 5.49118
internal_count=711 516 464 195 419 311 270 167 64 49 52 45 108 95 43 45 27 103 35 28 36 21 68 40 28 41
is_linear=0
shrinkage=0.1


Tree=22
num_leaves=28
num_cat=0
split_feature=11 11 8 15 23 11 13 18 23 21 9 9 11 23 16 9 23 13 21 8 11 8 5 18 0 5 30
split_gain=5.12971 4.14169 4.40953 4.15098 4.55481 6.40412 4.48192 4.381 4.96031 4.04312 3.21381 4.85415 3.09382 3.02415 2.70322 3.70679 2.60294 2.71673 1.40635 0.282745 0.0471842 0.000117675 3.32075e-05 1.13568e-05 7.69584e-06 5.5503e-06 3.76096e-06
threshold=1.0000000180025095e-35 4891.5000000000009 93.500000000000014 0.067125178873538985 -0.69103813171386708 14280.500000000002 40.500000000000007 0.11882349848747255 -0.40150551497936243 643.66998291015636 69.500000000000014 55.500000000000007 14439.500000000002 -0.19560556858777997 31.500000000000004 23.500000000000004 -0.37927065789699549 129.50000000000003 674.48999023437511 195.00000000000003 3884.5000000000005 84.500000000000014 4.3367564678192148 0.049390001222491271 2.5000000000000004 3.6465089321136479 10.500000000000002
decision_type=2 2 2 2 2 2 2 2 2 2 2 2 2 2 2 2 2 2 2 2 2 2 2 2 2 2 2
left_child=21 10 3 7 5 -5 -6 8 -3 -9 11 14 19 -13 15 -2 -14 -18 20 -4 -12 22 23 24 25 -1 -26
right_child=1 2 12 4 6 -7 -8 9 -10 -11 18 13 16 -15 -16 -17 17 -19 -20 -21 -22 -23 -24 -25 26 -27 -28
leaf_value=-0.10394871580387038 -0.009869033140546539 0.030609155955714673 0.11987485105537604 -0.12303487035221797 0.053930331647878194 0.072468738796431592 -0.020532382849221389 0.098120771656658987 -0.047607014764864911 -0.025282785445480502 0.11432901252395539 0.0243359875536176 0.10279924988243455 -0.10767417973997334 -0.035202819223431464 0.11411229037530619 0.056929523339815158 -0.050749345219751989 0.040547958154692587 0.077278989730835551 0.13156611539659938 -0.10603408789990176 -0.10520855596182546 -0.10392311132035965 -0.10481655765007047 -0.10441019645445299 -0.10440894943393597
leaf_weight=0.3956023212522275 3.3746785297989907 10.211041778326033 4.370264649391177 4.6426068767905226 29.460126303136349 2.6216900870203972 11.139791600406168 5.5620552301406843 39.368309676647186 5.0797375664114952 3.6465082317590696 3.3929066807031631 2.9608615189790735 3.5521617829799643 2.5278992503881446 8.4490578174591047 4.1071135327219928 5.4552542641758919 3.174147292971611 2.4219375401735306 2.8132323175668716 0.55508955568075169 0.49340322986245144 0.57789881527423848 0.52219081297516812 0.76382686570286751 0.39958450943231583
leaf_count=11 12 35 15 25 97 8 58 16 183 22 15 11 8 13 9 25 14 25 12 10 8 11 11 16 12 19 10
internal_value=0.0115801 0.0143028 0.00633365 -0.00153099 0.0204507 -0.0524775 0.0334993 -0.0190022 -0.0314981 0.0392155 0.0471273 0.0254472 0.0503426 -0.0431826 0.0586586 0.0787261 0.0208684 -0.00450041 0.0950533 0.104686 0.121836 -0.104692 -0.104455 -0.104315 -0.104424 -0.104253 -0.10464
internal_weight=162.039 158.331 127.401 108.085 47.8642 7.2643 40.5999 60.2211 49.5794 10.6418 30.9306 21.2967 19.3154 6.94507 14.3516 11.8237 12.5232 9.56237 9.63389 6.7922 6.45974 3.7076 3.15251 2.6591 2.0812 1.15943 0.921775
internal_count=711 621 516 444 188 33 155 256 218 38 105 70 72 24 46 37 47 39 35 25 23 90 79 68 52 30 22
is_linear=0
shrinkage=0.1


Tree=23
num_leaves=27
num_cat=0
split_feature=11 4 29 8 17 11 11 27 11 11 19 7 13 17 9 27 7 8 7 11 8 5 18 0 5 30
split_gain=4.54175 4.20138 5.92888 5.27186 3.95164 3.70566 8.61477 4.87728 5.09537 4.6362 3.9337 3.64429 2.5878 2.80962 2.5674 2.4128 1.97156 0.194229 0.085471 0.0174867 8.63883e-05 2.43826e-05 8.30981e-06 5.62615e-06 4.05535e-06 2.74475e-06
threshold=1.0000000180025095e-35 0.23944739252328875 0.0037647066637873654 45.500000000000007 1.5000000000000002 6240.5000000000009 6502.0000000000009 9.5000000000000018 8412.0000000000018 8884.5000000000018 6.5000000000000009 47.500000000000007 20.500000000000004 1.0000000180025095e-35 61.500000000000007 12.500000000000002 66.500000000000014 69.500000000000014 43.500000000000007 10174.500000000002 84.500000000000014 4.3367564678192148 0.049390001222491271 2.5000000000000004 3.6465089321136479 10.500000000000002
decision_type=2 2 2 2 2 2 2 2 2 2 2 2 2 2 2 2 2 2 2 2 2 2 2 2 2 2
left_child=20 2 16 4 18 10 -7 8 -8 -9 14 -5 13 -12 -3 -14 17 19 -4 -2 21 22 23 24 -1 -25
right_child=1 5 3 11 -6 6 7 9 -10 -11 12 -13 15 -15 -16 -17 -18 -19 -20 -21 -22 -23 -24 25 -26 -27
leaf_value=-0.10355925141079259 -0.1347986003689905 -0.067326019788422689 -0.15343310871204907 0.12344864421150799 0.045362037256572764 -0.13860869035525553 -0.061822268870794908 0.073549925707643182 0.011811115823115562 0.0079357822061050503 0.12430008275014943 -0.021116146390609793 0.052940152693864956 0.038573916926055225 0.043559521128500256 -0.04054825629798877 -0.0046859250937049974 -0.17110090353106869 -0.12060987499042503 -0.12039308834541257 -0.10543240894818671 -0.1046909333148644 -0.10353603402496092 -0.10433757777732229 -0.10397317436063212 -0.10397226775610108
leaf_weight=0.35923334024846576 1.711523763835433 4.5337162464857084 1.6385345757007583 4.2206501513719559 1.8805363476276395 3.821026235818862 12.547314241528509 20.578775435686111 37.439729481935501 22.590124741196632 9.3766040205955523 2.9714074209332466 12.579021513462068 6.4551089704036704 3.8708245605230331 3.5368169099092475 1.3580304160714147 1.4860704839229582 1.5379848182201383 1.6598903536796568 0.50498577579855908 0.448544431477785 0.52475971728563298 0.47455620020627964 0.69389595836400986 0.36300009861588478
leaf_count=11 10 17 8 12 9 18 56 58 160 95 27 17 41 23 15 13 9 8 12 13 11 11 16 12 19 10
internal_value=0.0106463 0.0131304 -0.0316546 0.0087102 -0.069526 0.019152 0.00855576 0.0145921 -0.0066717 0.0392143 0.0446175 0.0637215 0.0606317 0.0893467 -0.0162562 0.032423 -0.111203 -0.140982 -0.137541 -0.127706 -0.104226 -0.104014 -0.103888 -0.103986 -0.103832 -0.104179
internal_weight=159.163 155.794 18.4646 12.2491 5.05706 137.329 96.977 93.1559 49.987 43.1689 40.3521 7.19206 31.9476 15.8317 8.40454 16.1158 6.21552 4.85748 3.17652 3.37141 3.36898 2.86399 2.41545 1.89069 1.05313 0.837556
internal_count=711 621 98 58 29 523 387 369 216 153 136 29 104 50 32 54 40 31 20 23 90 79 68 52 30 22
is_linear=0
shrinkage=0.1


Tree=24
num_leaves=19
num_cat=0
split_feature=4 5 27 5 11 8 19 29 27 21 29 21 14 11 9 20 16 22
split_gain=4.15238 4.50867 4.40535 3.96675 3.88684 5.00617 4.6163 3.17525 5.86365 4.66239 4.3225 4.02059 2.0005 1.90088 2.51675 4.4646 1.40423 0.720877
threshold=0.33518731594085699 1.2424533367156985 19.500000000000004 1.4978661537170412 10174.500000000002 105.00000000000001 11.500000000000002 0.0020997559186071162 3.5000000000000004 625.25000000000011 0.0083102989010512846 643.23001098632824 445.50000000000006 8412.0000000000018 26.000000000000004 2.5000000000000004 32.500000000000007 -0.03793929144740104
decision_type=2 2 2 2 2 2 2 2 2 2 2 2 2 2 2 2 2 2
left_child=1 17 7 -2 13 6 -6 9 12 -3 -10 -11 -9 14 -5 -16 -8 -1
right_child=3 2 -4 4 5 -7 16 8 10 11 -12 -13 -14 -15 15 -17 -18 -19
leaf_value=-0.0685879408223138 0.13002360949474548 0.09302214886795486 -0.12681942453972558 -0.063927414070192465 0.023254090269664879 0.0652288010674517 -0.15352844352493847 -0.028742313368121272 0.029318586814510578 -0.13161519702207847 -0.041595950856590722 -0.019664707840717485 -0.13786400053787909 0.10399491609338703 0.10251834282272697 0.0015807542446604165 -0.050572811369554785 -0.16752470039814293
leaf_weight=1.3607426155358555 4.0493604503571978 2.5223107226192978 2.5601984839886418 2.2282945085316959 4.2292404249310476 5.2307494878768912 3.5302100032567978 3.9470400735735884 72.831803940236568 4.6172754634171715 9.7454941496252996 10.510762834921477 2.9250516593456268 5.2255967408418647 8.2456433381885308 9.3520881161093694 2.1205195784568787 1.605225846171378
leaf_count=14 12 8 15 14 16 17 17 21 274 49 47 81 21 15 28 42 10 10
internal_value=0.00972012 -0.000474547 0.00281597 0.0356902 0.0261791 -0.0138766 -0.0557574 0.00591488 0.0135635 -0.0328472 0.0209495 -0.0538335 -0.0751891 0.05034 0.0361981 0.0488764 -0.114893 -0.122134
internal_weight=156.838 112.626 109.66 44.2117 40.1623 15.1107 9.87997 107.1 89.4494 17.6503 82.5773 15.128 6.87209 25.0516 19.826 17.5977 5.65073 2.96597
internal_count=711 540 516 171 159 60 43 501 363 138 321 130 42 99 84 70 27 24
is_linear=0
shrinkage=0.1


Tree=25
num_leaves=22
num_cat=0
split_feature=4 5 25 25 21 29 24 15 5 24 29 18 14 29 7 18 26 9 19 19 7
split_gain=3.51556 3.82981 3.99732 5.87186 3.65315 3.64428 3.88033 3.61901 3.56206 3.36581 3.86159 3.35896 2.76117 3.49462 3.20744 1.94556 2.58822 1.76261 0.597761 0.216787 0.187139
threshold=0.33518731594085699 1.2424533367156985 202.54650878906253 80.041667938232436 642.35501098632824 0.0020997559186071162 0.95972886681556713 0.039139518514275558 1.4978661537170412 0.4484058022499085 0.0035889092832803731 0.047065500169992454 344.50000000000006 0.0012192621361464264 32.500000000000007 0.17914449423551562 22.606900215148929 92.500000000000014 12.500000000000002 11.500000000000002 55.500000000000007
decision_type=2 2 2 2 2 2 2 2 2 2 2 2 2 2 2 2 2 2 2 2 2
left_child=1 18 3 5 -4 7 -7 -3 -2 12 17 20 13 -10 -15 16 -12 -11 -1 -14 -5
right_child=8 2 4 11 -6 6 -8 -9 9 10 15 -13 19 14 -16 -17 -18 -19 -20 -21 -22
leaf_value=-0.14902591164827136 0.12595312963131997 -0.0072574083782207428 0.14320930312719965 -0.16848845344783142 -0.0012515507450266334 0.031757008512759886 -0.012945803999518177 -0.11126328220127757 -0.1360990142135915 -0.13754084660697349 0.014481013181974542 -0.0082139257201147807 0.1401437710434647 0.10844938044724298 -0.038888321856423658 -0.06144538906975338 0.11036035820336416 -0.0089879949955144617 -0.053011764089172547 0.10052025399027638 -0.12598138316474827
leaf_weight=1.8369792103767388 3.776298899203538 10.464348156005142 3.7320358529686919 2.1722449809312812 3.2969735637307167 45.48301125317812 33.883287012577057 4.9179336037486783 1.1274840254336576 2.4886459112167385 15.730207979679113 2.9178586974740028 2.6207280158996582 4.0628182142972946 2.3219135701656342 2.543277032673358 3.4292516410350791 1.8665258288383482 1.0021692775189874 2.9184255301952362 1.9795675873756406
leaf_count=16 12 79 10 11 14 165 157 55 17 13 56 12 8 14 10 11 10 8 8 12 13
internal_value=0.00886817 -0.000476994 0.00251371 -0.00252141 0.0754496 0.00403836 0.0126724 -0.0405096 0.0332057 0.0242502 0.00348851 -0.0904362 0.0657023 0.026206 0.0548676 0.0207333 0.031642 -0.0824461 -0.115135 0.119267 -0.148221
internal_weight=154.572 111.686 108.847 101.818 7.02901 94.7486 79.3663 15.3823 42.8856 39.1093 26.0579 7.06967 13.0514 7.51222 6.38473 21.7027 19.1595 4.35517 2.83915 5.53915 4.15181
internal_count=711 540 516 492 24 456 322 134 171 159 98 36 61 41 24 77 66 21 24 20 24
is_linear=0
shrinkage=0.1


Tree=26
num_leaves=31
num_cat=0
split_feature=7 24 26 19 24 5 7 30 24 24 26 21 30 23 6 25 0 25 25 7 28 30 23 1 23 7 19 0 28 5
split_gain=2.89549 3.05507 4.17852 7.55851 6.1108 6.12744 3.88396 5.73346 7.06708 3.55992 3.67773 3.31203 3.20768 4.32767 3.43583 2.95093 2.93666 2.68222 2.42409 2.68599 1.29828 1.14104 0.534674 0.0618127 0.0541104 0.0330771 0.000326651 1.80279e-05 1.60741e-05 3.79747e-06
threshold=1.0000000180025095e-35 0.75181159377098095 3.9839500188827519 9.5000000000000018 2.1757576465606694 2.5249279737472539 51.500000000000007 23.500000000000004 1.3288288712501528 1.1166037917137148 17.298100471496586 674.69000244140636 29.500000000000004 0.22194492071866992 1.5000000000000002 212.32499694824222 4.5000000000000009 2.0207279920578007 15.988030433654787 33.500000000000007 0.34313726425170904 1.0000000180025095e-35 0.059233581647276885 7.5000000000000009 -0.28344756364822382 57.500000000000007 13.500000000000002 2.5000000000000004 1.0000000180025095e-35 3.5259279012680058
decision_type=2 2 2 2 2 2 2 2 2 2 2 2 2 2 2 2 2 2 2 2 2 2 2 2 2 2 2 2 2 2
left_child=21 12 3 22 5 -5 9 11 -9 10 -4 -8 14 18 15 16 -2 -11 19 -14 -20 -1 24 26 -3 -6 27 29 -29 -23
right_child=1 2 6 4 25 -7 7 8 -10 17 -12 -13 13 -15 -16 -17 -18 -19 20 -21 -22 23 -24 -25 -26 -27 -28 28 -30 -31
leaf_value=0.0030919575281598134 0.047742915302401413 -0.14883055341547136 -0.071554273365391732 0.1379500784103094 -0.14032050010304989 -0.012023882025300027 -0.11681486432038873 0.10356518059980971 -0.051304952190652654 0.10477892006035112 0.039696088231284656 0.0019479392149441841 -0.031931245407568185 0.083351042178900575 -0.077129530486871378 0.13267918377114243 -0.011217913962184124 0.025023720193537546 -0.045688967159548961 -0.16251004629651797 0.057340892325585292 -0.10271062345859033 -0.08019419533722566 -0.14311190751931102 -0.12805130372041443 -0.11888334742568246 -0.10671375763337272 -0.10318877732637628 -0.10398677782357518 -0.10312605993240165
leaf_weight=1.2898157481104124 40.353106882423162 3.0423651859164238 4.8869153857231158 3.6013974696397808 1.8173501491546624 11.185287546366451 6.5056060999631899 6.0777123272418958 5.7191377393901348 8.7937223613262194 7.5814436972141266 3.6744996681809425 3.823336184024809 3.3648513332009307 2.5633185878396025 3.3212363868951789 10.684058971703051 8.1015608012676221 2.3724382817745209 2.6791373938322067 2.5244381576776505 0.32838762737810734 2.0758092179894447 0.48193666897714127 2.1309938430786159 1.1917796209454534 0.32386919856071461 0.5036371164023874 0.50604049116373062 0.66683324612677097
leaf_count=19 153 16 24 9 10 46 41 20 32 25 24 18 18 13 12 8 43 30 11 14 10 13 12 5 14 10 7 17 14 23
internal_value=0.00811258 0.0104081 -0.00350702 -0.036994 -0.00193145 0.0245033 0.0128286 -0.0189642 0.0284838 0.0366236 -0.00390797 -0.0739475 0.0252354 -0.0162994 0.0360086 0.0413438 0.0354001 0.066535 -0.0457141 -0.0857321 0.00742499 -0.0747788 -0.123068 -0.110513 -0.140271 -0.13183 -0.103767 -0.103291 -0.103589 -0.102989
internal_weight=152.172 148.072 76.3856 25.045 17.7958 14.7867 51.3406 21.977 11.7969 29.3636 12.4684 10.1801 71.6859 14.7642 56.9217 54.3584 51.0372 16.8953 11.3994 6.50247 4.89688 4.10052 7.24917 2.8107 5.17336 3.00913 2.32877 2.0049 1.00968 0.995221
internal_count=711 613 331 117 75 55 214 111 52 103 48 59 282 66 216 204 196 55 53 32 21 98 42 79 30 20 74 67 31 36
is_linear=0
shrinkage=0.1


Tree=27
num_leaves=22
num_cat=0
split_feature=4 29 8 18 27 24 16 10 13 7 1 29 18 29 30 13 8 26 7 16 13
split_gain=3.34031 4.85723 4.19036 4.27382 3.71006 3.65202 2.72953 3.13053 4.39514 4.03306 4.87715 3.72282 3.1351 2.98358 2.78603 2.37066 0.2896 0.164092 0.0749238 0.0159576 0.00137228
threshold=0.23944739252328875 0.0037647066637873654 45.500000000000007 0.085563998669385924 19.500000000000004 0.61337512731552135 183.00000000000003 106.50000000000001 15.500000000000002 65.500000000000014 4.5000000000000009 0.0036798950750380759 0.095564000308513655 0.0016749787027947607 13.500000000000002 2424.0000000000005 84.500000000000014 12.186299800872805 43.500000000000007 17.500000000000004 45.500000000000007
decision_type=2 2 2 2 2 2 2 2 2 2 2 2 2 2 2 2 2 2 2 2 2
left_child=1 15 3 18 6 -4 7 8 14 12 -11 -10 -9 -8 -2 16 19 -15 -3 20 -1
right_child=4 2 5 -5 -6 -7 13 9 11 10 -12 -13 -14 17 -16 -17 -18 -19 -20 -21 -22
leaf_value=-0.10933805587777966 -0.0022232070887266016 -0.14745319349175481 0.11235126477837176 0.075680957561008844 -0.11203099874326253 -0.041018940519298407 0.035245067909885325 0.069217262493173212 0.022034179496537604 -0.064370417780048927 0.094217430347211945 -0.044355592623368412 -0.010263684986295631 -0.093264918564081867 0.048766763339199354 0.029149848218873405 -0.17723497547604167 -0.13841123098166336 -0.11696007887095246 -0.12569187245010063 -0.11542135054793423
leaf_weight=0.70973139442503741 18.348127359524369 1.5148561447858795 4.2248501032590866 1.4434845894575117 2.3365561813116065 2.4545968919992447 2.2075665444135657 28.545955596491694 13.498120872303842 6.6912670657038671 2.7305728793144226 22.568432927131653 6.0071412213146678 1.6212375760078432 25.759609906002879 1.083336468786001 1.1787881255149839 1.5992545112967489 1.721447806805372 2.4095489904284477 0.77655445225536823
leaf_count=12 84 8 14 5 14 15 12 116 75 39 8 100 29 11 104 6 5 9 16 19 10
internal_value=0.00740897 -0.0336195 0.00515136 -0.0674105 0.0128573 0.05599 0.0151093 0.0181441 0.00638365 0.0395854 -0.0184096 -0.0195088 0.0553993 -0.0543018 0.0275557 -0.105138 -0.133806 -0.115684 -0.131233 -0.120665 -0.112516
internal_weight=149.431 17.5172 11.3592 4.67979 131.914 6.67945 129.577 124.149 80.1743 43.9749 9.42184 36.0666 34.5531 5.42806 44.1077 6.15796 5.07462 3.22049 3.2363 3.89583 1.48629
internal_count=711 110 58 29 601 29 587 555 363 192 47 175 145 32 188 52 46 20 24 41 22
is_linear=0
shrinkage=0.1


Tree=28
num_leaves=25
num_cat=0
split_feature=11 11 8 16 29 29 22 11 21 22 14 20 4 5 21 4 21 15 8 0 28 8 21 15
split_gain=3.1361 2.94898 3.49848 3.41568 3.70064 7.93021 3.78735 2.76335 4.42744 2.32207 3.04249 4.21981 3.43304 1.42283 2.32013 1.41893 0.555084 0.182326 2.72543e-05 1.83767e-05 1.56956e-05 3.35701e-06 2.50762e-06 1.44597e-06
threshold=1.0000000180025095e-35 4891.5000000000009 93.500000000000014 169.50000000000003 0.0083102989010512846 0.0079546724446117895 -0.43827871978282923 27485.500000000004 641.70001220703136 -0.50564409792423237 175.50000000000003 1.0000000180025095e-35 0.31904487311840063 3.7494349479675297 670.36502075195324 0.27623236179351812 637.04000854492199 0.075212258845567717 78.500000000000014 2.5000000000000004 1.0000000180025095e-35 22.500000000000004 655.93499755859386 0.02839198894798756
decision_type=2 2 2 2 2 2 2 2 2 2 2 2 2 2 2 2 2 2 2 2 2 2 2 2
left_child=18 9 3 4 5 -3 -6 15 -9 -2 13 -12 -13 14 -11 -4 -5 -17 19 22 21 -21 23 -1
right_child=1 2 7 16 6 -7 -8 8 -10 10 11 12 -14 -15 -16 17 -18 -19 -20 20 -22 -23 -24 -25
leaf_value=-0.10273939454755004 -0.027921750842010436 -0.0028210027660467078 0.02254978093521276 -0.045455830252654608 0.045697453470517325 0.12061367967315979 -0.093933129756598802 -0.10976684006316072 0.053178877245700688 0.09344400126580002 0.10186608063756462 -0.10014438762756293 0.045307768408024862 0.12873324216145296 -0.021177600832152754 0.11825555528397985 -0.12716821640358966 0.08182228878066708 -0.10389151672574935 -0.10269554214754735 -0.10375310059292929 -0.10315922063117083 -0.10291947546548555 -0.10244771424011008
leaf_weight=0.33419499732553937 4.4255744293332127 81.199006404727697 2.903078109025957 1.2587054520845407 2.6043987795710564 5.5613555908203116 7.6441262550652009 2.499120205640792 5.0110866352915764 5.8730208426713961 3.299831345677374 3.7168166637420654 2.880115419626236 4.4862515181303015 2.5252831727266312 4.39137102663517 2.4485826417803764 1.9987634494900701 0.41548850946128357 0.25214907899498917 0.44020981527864933 0.41008224710822105 0.35326339863240719 0.34584348648786545
leaf_count=13 19 348 11 9 11 16 43 16 18 19 14 17 12 15 9 17 17 10 12 10 13 14 13 15
internal_value=0.00675662 0.00869406 0.00182581 -0.00522167 -0.0016216 0.00509118 -0.0584496 0.0440669 -0.00104346 0.0383614 0.0512377 0.0095399 -0.0366423 0.0832663 0.0589785 0.0805223 -0.0994251 0.10686 -0.10315 -0.103006 -0.10329 -0.102983 -0.102703 -0.102591
internal_weight=147.278 144.726 117.52 100.716 97.0089 86.7604 10.2485 16.8034 7.51021 27.2069 22.7813 9.89676 6.59693 12.8846 8.3983 9.29321 3.70729 6.39013 2.55123 2.13574 1.10244 0.662231 1.0333 0.680038
internal_count=711 621 516 444 418 364 54 72 34 105 86 43 29 43 28 38 26 27 90 78 37 24 41 28
is_linear=0
shrinkage=0.1


Tree=29
num_leaves=31
num_cat=0
split_feature=4 29 8 18 24 11 11 8 11 21 18 23 21 13 9 9 9 23 8 24 8 7 16 23 8 0 28 30 21 30
split_gain=2.86699 4.04394 3.44479 3.55369 3.07852 2.68862 2.53895 3.04639 3.70163 3.47841 4.64129 3.37938 2.96773 2.07863 1.93813 4.34415 2.11209 2.04383 0.99258 0.859816 0.204882 0.0507563 0.00967071 0.001081 1.70506e-05 1.09573e-05 1.15259e-05 3.10525e-06 2.27946e-06 6.40329e-07
threshold=0.23944739252328875 0.0037647066637873654 45.500000000000007 0.085563998669385924 0.61337512731552135 1.0000000180025095e-35 4891.5000000000009 84.500000000000014 27485.500000000004 629.45999145507824 0.083835002034902587 -0.16695495694875714 641.70001220703136 2424.0000000000005 69.500000000000014 55.500000000000007 23.500000000000004 -0.28344756364822382 61.500000000000007 0.35557506978511816 84.500000000000014 43.500000000000007 17.500000000000004 -0.34194286167621607 84.500000000000014 2.5000000000000004 1.0000000180025095e-35 18.500000000000004 648.85000610351574 24.500000000000004
decision_type=2 2 2 2 2 2 2 2 2 2 2 2 2 2 2 2 2 2 2 2 2 2 2 2 2 2 2 2 2 2
left_child=1 13 3 21 -4 24 14 9 19 10 -8 -11 -10 20 15 16 -7 -17 -16 -9 22 -3 23 -1 25 28 27 -27 29 -2
right_child=5 2 4 -5 -6 6 7 8 12 11 -12 -13 -14 -15 18 17 -18 -19 -20 -21 -22 -23 -24 -25 -26 26 -28 -29 -30 -31
leaf_value=-0.11477722252121557 -0.10218272156574532 -0.14105667956284765 0.10671998275851753 0.067354684947193669 -0.03756938627379966 0.0013667425352196371 0.0010390953244033296 0.11408895584024047 -0.10184823997552712 0.015271735029546228 0.10708750914426735 -0.028878513891530344 0.043628209058062938 0.023946559797444936 0.11742267296563816 0.015900179623736906 0.093721158480232644 -0.10681018474189402 0.033060988232412547 0.048970719259619926 -0.16663727111632681 -0.11475904658725325 -0.12203866665894447 -0.10893099733436573 -0.10352713898626749 -0.10288342077777538 -0.10338397353167297 -0.10242240894720762 -0.10268863083391722 -0.10242580908330573
leaf_weight=0.51897009834647156 0.20658345706760828 1.4011316597461685 3.8259849548339844 1.3770884424448011 2.4101638123393059 3.8026411980390602 11.603358849883081 5.512895464897154 2.2778131663799277 29.778782926499844 6.405038744211196 41.494384858757257 3.6483012214303017 1.0819378718733785 4.3088230937719336 2.6100215464830399 7.0993394255638123 2.8280039429664603 2.0621622949838638 3.2073862105607986 1.1461944133043287 1.5412764847278593 2.1785952262580395 0.80982881970703913 0.34631868079304684 0.35004156269133069 0.39966798946261406 0.25078535825014114 0.25125323422253132 0.22791249305009842
leaf_count=6 10 8 14 5 15 13 47 25 14 121 18 186 14 6 19 9 25 11 9 12 5 16 19 16 11 13 13 11 10 10
internal_value=0.00620777 -0.0333153 0.00341046 -0.0652301 0.0509546 0.0112118 0.0130431 0.00642407 0.048695 -0.000510361 0.0387573 -0.010432 -0.0122884 -0.100905 0.0433326 0.0250915 0.0615077 -0.0479144 0.0901165 0.090138 -0.129933 -0.127282 -0.117938 -0.111214 -0.102888 -0.102757 -0.102968 -0.102691 -0.102449 -0.10231
internal_weight=144.963 16.2912 10.5556 4.3195 6.23615 128.672 126.639 103.928 14.6464 89.2816 18.0084 71.2732 5.92611 5.73553 22.711 16.34 10.902 5.43803 6.37099 8.72028 4.65359 2.94241 3.50739 1.3288 2.03256 1.68624 1.00049 0.600827 0.685749 0.434496
internal_count=711 110 58 29 29 601 523 437 65 372 65 307 28 52 86 58 38 20 28 37 46 24 41 22 78 67 37 24 30 20
is_linear=0
shrinkage=0.1


Tree=30
num_leaves=22
num_cat=0
split_feature=11 27 4 10 29 7 11 11 27 19 10 13 13 10 27 8 0 4 21 8 15
split_gain=2.49669 2.45818 2.73928 3.47109 3.67278 3.79422 2.2801 5.78718 4.74877 2.78912 2.29718 1.91425 1.47938 0.828008 1.59038e-05 8.67478e-06 5.62266e-06 1.60199e-06 1.0484e-06 7.91715e-07 5.35665e-07
threshold=1.0000000180025095e-35 19.500000000000004 0.23944739252328875 31.500000000000004 0.0038785042706876998 47.500000000000007 6240.5000000000009 6502.0000000000009 10.500000000000002 6.5000000000000009 127.50000000000001 20.500000000000004 962.50000000000011 14.500000000000002 3.5000000000000004 78.500000000000014 2.5000000000000004 0.28887884318828588 655.93499755859386 35.500000000000007 0.02839198894798756
decision_type=2 2 2 2 2 2 2 2 2 2 2 2 2 2 2 2 2 2 2 2 2
left_child=14 2 3 13 12 -6 9 -8 -9 10 -4 -11 -5 -2 -1 16 18 19 20 -18 -16
right_child=1 -3 6 4 5 -7 7 8 -10 11 -12 -13 -14 -15 15 -17 17 -19 -20 -21 -22
leaf_value=-0.10325371684952869 -0.04985434901533576 -0.090112499572480909 -0.062735114851173376 -0.13373617471686436 0.097128574194456307 -0.052707774759981063 -0.1263588241823147 -0.0080065572132010012 0.040810481731745805 0.076574134542855651 0.052277570869245532 0.023755863005718796 0.00087938661468166105 -0.14247162239307315 -0.10219346928420442 -0.10294467468193386 -0.10252108998709775 -0.10235070390364012 -0.10234565877920627 -0.10277567300499529 -0.10199271939631926
leaf_weight=0.28742938302457277 1.5171318016946305 2.541362300515174 4.5598582699894896 2.2433188222348677 4.4267418533563614 2.7336299642920494 3.2083005085587493 52.657562058418989 32.058516167104244 13.832240581512453 2.8048212677240372 13.616116553544996 1.2834307588636873 2.653670072555542 0.24980302155017831 0.29947855696082104 0.2313613798469305 0.26602081581950188 0.22096464037895203 0.25879255682229996 0.28406641725450754
leaf_count=10 13 15 20 18 17 20 16 242 121 50 11 51 8 19 12 11 10 12 10 10 15
internal_value=0.00572049 0.00734154 0.0091415 -0.0314117 -0.00121685 0.0399252 0.0140507 0.00547426 0.0104669 0.0357113 -0.0189328 0.0503729 -0.0847478 -0.108782 -0.102563 -0.102453 -0.102356 -0.102548 -0.102162 -0.102656 -0.102087
internal_weight=142.235 140.137 137.595 14.8579 10.6871 7.16037 122.737 87.9244 84.7161 34.813 7.36468 27.4484 3.52675 4.1708 2.09792 1.81049 1.51101 0.756175 0.754834 0.490154 0.533869
internal_count=711 621 606 95 63 37 511 379 363 132 31 101 26 32 90 80 69 32 37 20 27
is_linear=0
shrinkage=0.1


Tree=31
num_leaves=26
num_cat=0
split_feature=29 27 16 28 29 29 23 5 29 28 29 5 10 0 5 15 5 29 7 26 23 26 29 5 7
split_gain=2.3149 3.60823 3.80833 3.40621 4.98076 3.40212 3.33798 2.62187 2.5388 2.58353 2.47276 4.81974 3.08106 1.79723 1.57807 2.69437 1.88142 1.48905 1.4243 1.18151 0.86774 0.516916 0.156524 0.149436 0.105003
threshold=0.0020997559186071162 3.5000000000000004 183.00000000000003 0.70714285969734203 0.0015673680463805797 0.00095600809436291467 0.090800713747739806 1.7005987167358401 0.0028190795565024023 0.44949495792388922 0.0033581966999918227 2.5249279737472539 108.00000000000001 9.5000000000000018 3.7494349479675297 0.065297603607177748 1.7005987167358401 0.0026211731601506476 34.500000000000007 4.1412000656127939 -1.0000000180025095e-35 -1.0000000180025095e-35 0.0010842655319720509 2.7058230638504033 1.0000000180025095e-35
decision_type=2 2 2 2 2 2 2 2 2 2 2 2 2 2 2 2 2 2 2 2 2 2 2 2 2
left_child=3 7 8 14 5 6 24 -2 9 17 11 -10 -12 18 16 20 -1 -3 -9 -7 -16 -18 -23 -20 -5
right_child=1 2 -4 4 -6 19 -8 13 10 -11 12 -13 -14 -15 15 -17 21 -19 23 -21 -22 22 -24 -25 -26
leaf_value=-0.003905172452504511 0.07904959650963872 0.052338787339537757 -0.10473356992635457 -0.10631720946751227 -0.12901902985778382 0.12122836031062896 0.073298154206156096 -0.01364560153634335 0.064064313393976793 -0.0038411034978122574 0.0036971552243403073 -0.11511806288567657 0.042070559781938327 0.023584277220047137 -0.034167220061907845 -0.14032326694808092 -0.2752911412792251 0.14513991561634174 -0.1605711157415787 0.034022878003073659 0.073748877794556536 -0.090577638520804402 -0.13321091805974458 -0.11853692626807975 -0.1542961397271401
leaf_weight=1.6011073812842367 1.2870128303766231 3.3103048577904683 2.5677853487431994 0.92215695604681813 2.0413030497729787 3.7630336135625839 1.4476465228945015 1.397323429584503 2.4258301407098761 3.5763894841074944 57.456658221781254 3.9383692443370819 32.907556608319283 1.4444119557738302 1.232478756457567 1.2996034193783996 0.23129992187023152 3.6196067333221436 1.158894322812557 2.646137923002243 1.8842302113771441 1.1704931398853657 3.2585142701864243 3.1301893219351768 0.90262807905673981
leaf_count=17 4 15 19 33 15 12 7 7 9 16 241 21 134 6 14 16 1 9 6 12 11 32 21 29 4
internal_value=0.0051952 0.0107802 0.0156174 -0.02428 0.0129358 0.0428661 -0.0400935 -0.0523166 0.0184993 0.0651865 0.0134283 -0.0468194 0.0176714 -0.0760263 -0.0651386 -0.0193635 -0.0974249 0.10081 -0.101329 0.0852241 0.0310743 -0.129555 -0.121944 -0.129894 -0.13005
internal_weight=140.621 118.22 109.803 22.4006 11.7229 9.6816 3.27243 8.41783 107.235 10.5063 96.7284 6.3642 90.3642 7.13082 10.6777 4.41631 6.26141 6.92991 5.68641 6.40917 3.11671 4.66031 4.42901 4.28908 1.82479
internal_count=711 516 464 195 83 68 44 52 445 40 405 30 375 48 112 41 71 24 42 24 25 54 53 35 37
is_linear=0
shrinkage=0.1


Tree=32
num_leaves=24
num_cat=0
split_feature=4 28 19 11 10 21 8 13 21 13 13 15 15 18 15 30 27 25 13 11 15 8 4
split_gain=2.38197 3.87587 4.59046 3.82596 3.64541 3.7252 3.9367 3.19035 3.22054 6.20195 5.89648 3.13722 3.66854 2.97316 2.38651 2.13166 2.02359 1.98468 2.31561 5.94121 0.842913 0.031705 0.000566837
threshold=0.31904487311840063 0.61250001192092907 4.5000000000000009 45579.500000000007 7.5000000000000009 659.72000122070324 32.500000000000007 58967.000000000007 633.55502319335949 10.500000000000002 40.500000000000007 0.094408296048641219 0.067125178873538985 0.02454050071537495 0.087536558508873 41.500000000000007 8.5000000000000018 52.238462448120124 385.50000000000006 8720.0000000000018 0.10443516448140146 320.50000000000006 0.28887884318828588
decision_type=2 2 2 2 2 2 2 2 2 2 2 2 2 2 2 2 2 2 2 2 2 2 2
left_child=3 2 -2 7 -4 6 -6 8 9 13 -11 12 -10 -1 17 -13 -7 18 19 -3 -16 22 -5
right_child=1 14 4 21 5 16 -8 -9 11 10 -12 15 -14 -15 20 -17 -18 -19 -20 -21 -22 -23 -24
leaf_value=0.014221604822950137 -0.14338448856483807 0.043833757425684128 -0.098574377305178956 -0.10971358501458364 -0.086106966637374091 0.014243193047054027 0.02150987095435309 0.10179198643048831 -0.027925871435414192 -0.11228877906947354 0.038605149962036595 -0.12022274053130005 0.030364403723205004 0.12280460186242891 0.14134006661951537 0.0048251483412091725 0.11238084688280513 0.11672668353376392 0.099216444059396128 -0.11213218404707043 0.067693897036943604 -0.13324615177871924 -0.11320405080648133
leaf_weight=4.0828173216432351 2.1428150776773718 8.6004147483035975 2.8803188288584378 1.1994241364300244 4.6003714203834596 3.4973642099648696 13.018089789897202 2.8649561982601872 34.345177506096661 4.5728046158328635 5.9715268928557634 4.607639084570109 15.747401485219596 6.5950868241488934 3.1259137168526641 1.9360072780400512 5.2629834748804569 2.4080957472324362 2.8919073119759551 3.4110924229025832 3.0907326936721802 0.96049073338508595 0.76009631901979435
leaf_count=18 13 39 18 16 24 15 60 11 199 31 33 35 74 22 8 12 17 8 10 19 15 6 8
internal_value=0.00471245 0.020891 -0.00210199 -0.00591228 0.00824495 0.0199086 -0.00659005 -0.0018446 -0.00565811 0.0275668 -0.0268337 -0.0181078 -0.00960139 0.0812867 0.0515786 -0.083226 0.0732017 0.0324934 0.0188829 -0.00045829 0.104725 -0.118363 -0.111068
internal_weight=138.574 54.9301 31.4019 83.6434 29.2591 26.3788 17.6185 80.7234 77.8585 21.2222 10.5443 56.6362 50.0926 10.6779 23.5282 6.54365 8.76035 17.3115 14.9034 12.0115 6.21665 2.92001 1.95952
internal_count=711 246 147 465 134 116 84 435 424 104 64 320 273 40 99 47 32 76 68 58 23 30 24
is_linear=0
shrinkage=0.1


Tree=33
num_leaves=29
num_cat=0
split_feature=4 5 10 9 24 10 20 10 27 5 11 9 16 9 10 11 11 16 7 13 16 10 16 28 29 24 29 30
split_gain=2.08027 3.90409 3.79651 3.09644 4.06763 4.90274 4.63182 3.13991 3.69169 2.87054 3.65582 4.88694 4.24771 4.20836 3.6503 2.85483 3.00161 2.86821 2.54617 2.19378 2.19232 1.8416 1.75002 1.59478 1.48021 0.962389 0.325096 0.155472
threshold=0.29237665235996252 1.7005987167358401 4.5000000000000009 64.500000000000014 1.16472864151001 1.5000000000000002 5.5000000000000009 291.00000000000006 6.5000000000000009 1.8688347935676577 8720.0000000000018 133.50000000000003 4.5000000000000009 81.500000000000014 28.500000000000004 5312.0000000000009 3879.5000000000005 61.500000000000007 74.000000000000014 4.5000000000000009 34.500000000000007 63.500000000000007 7.5000000000000009 0.91987180709838878 0.0022457799641415481 1.3288288712501528 0.0033858998212963347 3.5000000000000004
decision_type=2 2 2 2 2 2 2 2 2 2 2 2 2 2 2 2 2 2 2 2 2 2 2 2 2 2 2 2
left_child=1 27 22 15 7 -6 -7 8 -5 21 12 14 25 -14 -12 16 19 24 -13 -3 -9 -4 -2 -18 -17 -11 -23 -1
right_child=2 3 9 4 5 6 -8 20 -10 10 11 18 13 -15 -16 17 23 -19 -20 -21 -22 26 -24 -25 -26 -27 -28 -29
leaf_value=-0.11244627585139078 -0.15011643397692548 0.077184364433172462 0.0097999514166115329 -0.053948000756392722 0.094466252290124342 -0.082973846478380242 0.10181295894709488 0.10633068216215021 0.030718318650160666 0.11435955950078221 0.037597205233151521 0.098564019141606632 0.048875879460670818 -0.042987240151889011 -0.093898764071008278 -0.030009651427515022 -0.00087208308184281926 0.018472225555888424 -0.0048584194873795179 -0.10608070800736979 0.008891962114877262 0.084261564223315391 -0.013145047524778554 0.10515231544748518 -0.13878161488662394 0.040688075127750974 0.13399575124612234 -0.16704984442597082
leaf_weight=0.97410820983350221 1.8280214667320245 0.82581423968076917 2.5539845637977114 6.9319333937019136 2.45420267432928 10.96495201438665 1.5479675531387336 6.8964884150773269 20.033524677157402 6.6681309416890162 2.80328141152859 3.8187084943056089 12.726279348134996 8.2002271991223079 8.5493548512458784 1.6649082899093608 3.2525862492620945 2.2628878802061081 6.320294164121151 3.1246003843843937 3.4713699128478765 2.2813838105648756 1.90470012743026 2.5162025988101959 5.0335810482501984 2.4155003577470779 3.1005960702896118 1.1221257410943506
leaf_count=14 12 10 12 39 8 81 6 24 81 31 10 15 51 42 47 9 15 11 28 51 20 14 14 7 31 8 9 11
